{"learner":{"attributes":{"scikit_learn":"{\"_estimator_type\": \"classifier\"}"},"feature_names":["team winrate","overall_rating","potential","finishing","dribbling","short_passing","acceleration","sprint_speed","stamina","strength","positioning","reactions","vision","potential_gap","attacking_work_rate_le","attacking_work_rate_low","attacking_work_rate_medium","attacking_work_rate_norm","attacking_work_rate_stoc","attacking_work_rate_y","defensive_work_rate_1","defensive_work_rate_2","defensive_work_rate_3","defensive_work_rate_4","defensive_work_rate_ean","defensive_work_rate_es","defensive_work_rate_high","defensive_work_rate_low","defensive_work_rate_medium","defensive_work_rate_ormal","defensive_work_rate_tocky"],"feature_types":["float","float","float","float","float","float","float","float","float","float","float","float","float","float","i","i","i","i","i","i","i","i","i","i","i","i","i","i","i","i","i"],"gradient_booster":{"model":{"gbtree_model_param":{"num_parallel_tree":"1","num_trees":"300"},"iteration_indptr":[0,1,2,3,4,5,6,7,8,9,10,11,12,13,14,15,16,17,18,19,20,21,22,23,24,25,26,27,28,29,30,31,32,33,34,35,36,37,38,39,40,41,42,43,44,45,46,47,48,49,50,51,52,53,54,55,56,57,58,59,60,61,62,63,64,65,66,67,68,69,70,71,72,73,74,75,76,77,78,79,80,81,82,83,84,85,86,87,88,89,90,91,92,93,94,95,96,97,98,99,100,101,102,103,104,105,106,107,108,109,110,111,112,113,114,115,116,117,118,119,120,121,122,123,124,125,126,127,128,129,130,131,132,133,134,135,136,137,138,139,140,141,142,143,144,145,146,147,148,149,150,151,152,153,154,155,156,157,158,159,160,161,162,163,164,165,166,167,168,169,170,171,172,173,174,175,176,177,178,179,180,181,182,183,184,185,186,187,188,189,190,191,192,193,194,195,196,197,198,199,200,201,202,203,204,205,206,207,208,209,210,211,212,213,214,215,216,217,218,219,220,221,222,223,224,225,226,227,228,229,230,231,232,233,234,235,236,237,238,239,240,241,242,243,244,245,246,247,248,249,250,251,252,253,254,255,256,257,258,259,260,261,262,263,264,265,266,267,268,269,270,271,272,273,274,275,276,277,278,279,280,281,282,283,284,285,286,287,288,289,290,291,292,293,294,295,296,297,298,299,300],"tree_info":[0,0,0,0,0,0,0,0,0,0,0,0,0,0,0,0,0,0,0,0,0,0,0,0,0,0,0,0,0,0,0,0,0,0,0,0,0,0,0,0,0,0,0,0,0,0,0,0,0,0,0,0,0,0,0,0,0,0,0,0,0,0,0,0,0,0,0,0,0,0,0,0,0,0,0,0,0,0,0,0,0,0,0,0,0,0,0,0,0,0,0,0,0,0,0,0,0,0,0,0,0,0,0,0,0,0,0,0,0,0,0,0,0,0,0,0,0,0,0,0,0,0,0,0,0,0,0,0,0,0,0,0,0,0,0,0,0,0,0,0,0,0,0,0,0,0,0,0,0,0,0,0,0,0,0,0,0,0,0,0,0,0,0,0,0,0,0,0,0,0,0,0,0,0,0,0,0,0,0,0,0,0,0,0,0,0,0,0,0,0,0,0,0,0,0,0,0,0,0,0,0,0,0,0,0,0,0,0,0,0,0,0,0,0,0,0,0,0,0,0,0,0,0,0,0,0,0,0,0,0,0,0,0,0,0,0,0,0,0,0,0,0,0,0,0,0,0,0,0,0,0,0,0,0,0,0,0,0,0,0,0,0,0,0,0,0,0,0,0,0,0,0,0,0,0,0,0,0,0,0,0,0,0,0,0,0,0,0,0,0,0,0,0,0,0,0,0,0,0,0],"trees":[{"base_weights":[-1.4226088E-1,-3.1583375E-1,9.990141E-2,-7.0615077E-1,-2.403848E-1,4.2180368E-1,-1.1289816E-1,-4.359869E-1,-8.8352543E-1,-1.1832611E-1,-6.547734E-1,1.0408728E0,7.134407E-2,6.853782E-2,-4.3953505E-1,-6.196389E-1,2.981243E-1,-1.1790986E0,-7.3901063E-1,6.5335415E-2,-2.3839255E-1,-9.132624E-1,-4.9350688E-1,1.6041275E0,7.0052534E-1,-6.676637E-1,2.8719768E-1,-4.2719263E-1,2.0289046E-1,3.449493E-1,-5.3969806E-1,8.423622E-1,-6.916669E-1,1.5717793E0,-2.2838019E-1,-1.230683E0,1.6358638E-2,-5.588433E-1,-1.1091446E0,-4.5552215E-1,1.5175109E-1,-4.34044E-1,-1.0987585E-1,6.5694803E-1,-9.589934E-1,-3.1068864E-1,-1.0372864E0,6.2936693E-1,2.005754E0,1.3254489E0,3.541892E-1,-8.25015E-1,4.0024737E-1,8.9687777E-1,1.00860015E-1,2.776033E-1,-4.774759E-1,3.8914955E-1,-3.692084E-1,-2.239817E-1,1.0826894E0,-6.070757E-1,1.7516457E-1,3.6929175E-1,-1.5998352E-1,-8.564527E-1,-2.4794632E-1,-3.4755334E-2,2.2442937E0,-7.4358636E-1,8.662535E-1,-6.581054E-1,-2.5277933E-1,-7.1006614E-1,2.3986891E-1,-2.4601774E-1,-2.551534E-1,1.4458966E-2,-9.894932E-1,-4.2030823E-1,2.2916134E-1,-4.5064485E-1,2.7911863E-1,-6.9911055E-2,-1.0251657E0,-1.1426369E-1,4.2357937E-1,-3.4765336E-1,-1.0125742E0,-7.9986566E-1,-1.08977616E-1,-5.953237E-2,-1.1001562E0,1.4740486E0,-4.1701448E-1,-5.712938E-1,2.3038688E0,2.01533E0,1.701173E-1,7.40586E-1,-9.085584E-2,4.9337363E-1,-9.11428E-1,-1.8907379E-1,9.5897174E-1,4.8448905E-1,2.522212E0,-9.096297E-1,2.002505E-1,8.002474E-1,-5.292824E-1,5.2111536E-1,-2.1937042E-1,2.7353933E-1,-5.353717E-1,6.0518473E-2,2.2679548E0,-5.194525E-1,-1.0436765E0,-1.9620661E-1,6.4850545E-1,-1.8161012E-1,1.3027069E-1,2.7347922E-1,-1.22322656E-1,5.500817E-1,4.7085926E-2,-1.9477127E-2,-2.1050726E-1,-1.0432575E-1,3.2245106E-1,-1.9670415E-1,4.7085926E-2,2.0469466E-1,-1.5393452E-1,2.2452371E-1,-2.2125962E-1,2.0469466E-1,-2.0296791E-1,-1.346255E-1,7.6648004E-2,-2.2170983E-1,1.04385495E-1,1.5140767E-1,-1.389873E-1,1.1059135E-1,2.2015179E-2,-7.051689E-2,-1.6819827E-1,-4.223003E-2,3.5338588E-2,2.1649024E-2,-2.2498123E-1,1.5004724E-1,-1.6468212E-1,-2.0523225E-1,2.7482014E-5,-1.7525576E-1,2.3533264E-1,-9.6781455E-2,1.8305914E-2,1.9463325E-1,-1.7389618E-1,-6.58513E-2,-2.3354979E-1,-1.0432575E-1,3.8008043E-1,-1.8459377E-1,2.1229212E-1,-1.643625E-1,4.7085926E-2,8.475094E-2,5.010841E-1,2.217511E-1,4.9653888E-1,4.5410958E-1,-3.3574313E-2,3.0692586E-1,1.5304336E-2,1.5982369E-2,-2.1645354E-1,3.200495E-1,-1.1426369E-1,1.01858936E-1,-1.9607252E-1,2.560631E-1,-6.484309E-2,2.7301463E-1,-4.3997433E-2,6.1982197E-1,8.279865E-2,5.584673E-2,-2.1117978E-1,7.58357E-2,-7.485222E-2,3.1309673E-1,-7.997802E-2,-1.4030908E-1,-2.0296982E-2,8.2315385E-2,2.8807566E-1,4.2357937E-1,-6.2401127E-2,-3.833742E-2,4.1798177E-1,3.200495E-1,-1.2003584E-1,-9.6784115E-2,3.035066E-1,1.3149652E-2,6.286724E-1,-1.9972147E-1,-6.897196E-2,2.7911863E-1,-2.4115884E-1,-4.8671737E-3,3.1705087E-1],"categories":[],"categories_nodes":[],"categories_segments":[],"categories_sizes":[],"default_left":[0,0,0,0,0,0,0,0,0,0,0,0,0,0,0,0,0,0,0,0,0,0,0,0,0,0,0,0,0,0,0,0,0,0,0,0,0,0,0,0,0,0,0,0,0,0,0,0,0,0,0,0,0,0,0,0,0,0,0,0,0,0,0,0,0,0,0,0,0,0,0,0,0,0,0,0,0,0,0,0,0,0,0,0,0,0,0,0,0,0,0,0,0,0,0,0,0,0,0,0,0,0,0,0,0,0,0,0,0,0,0,0,0,0,0,0,0,0,0,0,0,0,0,0,0,0,0,0,0,0,0,0,0,0,0,0,0,0,0,0,0,0,0,0,0,0,0,0,0,0,0,0,0,0,0,0,0,0,0,0,0,0,0,0,0,0,0,0,0,0,0,0,0,0,0,0,0,0,0,0,0,0,0,0,0,0,0,0,0,0,0,0,0,0,0,0,0,0,0,0,0,0,0,0,0,0,0,0,0,0,0,0,0,0,0,0,0],"id":0,"left_children":[1,3,5,7,9,11,13,15,17,19,21,23,25,27,29,31,33,35,37,39,41,43,45,47,49,51,53,55,57,59,61,63,65,67,69,71,-1,73,75,77,79,81,83,85,87,89,91,93,95,97,99,101,103,105,107,-1,109,111,113,-1,115,117,119,-1,-1,121,123,-1,125,127,129,131,-1,133,135,-1,137,139,141,143,145,147,-1,149,151,-1,-1,153,155,157,159,161,163,165,167,169,171,173,175,177,179,181,183,-1,185,187,189,191,193,195,197,199,201,203,205,207,209,211,213,-1,215,-1,-1,-1,-1,-1,-1,-1,-1,-1,-1,-1,-1,-1,-1,-1,-1,-1,-1,-1,-1,-1,-1,-1,-1,-1,-1,-1,-1,-1,-1,-1,-1,-1,-1,-1,-1,-1,-1,-1,-1,-1,-1,-1,-1,-1,-1,-1,-1,-1,-1,-1,-1,-1,-1,-1,-1,-1,-1,-1,-1,-1,-1,-1,-1,-1,-1,-1,-1,-1,-1,-1,-1,-1,-1,-1,-1,-1,-1,-1,-1,-1,-1,-1,-1,-1,-1,-1,-1,-1,-1,-1,-1,-1,-1,-1,-1],"loss_changes":[1.2621268E2,5.1332504E1,8.595475E1,1.316568E1,7.412711E1,1.08257126E2,4.482093E1,1.5561003E1,6.3786316E0,2.5032993E1,1.3455063E1,3.34626E1,5.122155E1,3.250599E1,2.1404259E1,1.0223526E1,1.6115982E1,3.6166153E0,7.1607056E0,2.0290485E1,1.7207302E1,9.748482E0,2.0315948E1,2.5037903E1,2.4255272E1,1.2532524E1,2.8116196E1,1.0165642E1,4.1024208E1,3.4912617E1,1.1658775E1,9.309093E0,6.2076607E0,8.606577E0,1.0512403E1,1.570282E-1,0E0,9.892294E0,3.526638E0,1.6120749E1,1.7193233E1,8.881973E0,1.51276045E1,8.723531E0,3.703125E0,1.5384137E1,3.1191292E0,1.9228952E1,3.7516174E1,3.1834106E1,1.2941632E1,7.6973953E0,8.424093E0,3.7649273E1,1.9394064E1,0E0,7.1787453E0,2.3394753E1,1.0264704E1,0E0,2.5605247E1,7.851776E0,1.2367145E1,0E0,0E0,5.540909E0,1.5631003E1,0E0,4.5626545E0,2.3803048E0,7.117283E0,1.6670959E0,0E0,7.806938E0,1.7356947E1,0E0,6.7448287E0,9.163584E0,5.9875336E0,1.5518965E1,1.3076719E1,1.0039627E1,0E0,1.3941645E1,2.07868E0,0E0,0E0,6.6239057E0,1.5591049E0,7.9211826E0,8.477152E0,4.3484054E0,2.148941E0,1.1094255E1,8.599574E0,1.3428102E0,1.5017792E1,7.918091E0,1.187179E1,2.1070896E1,6.127746E0,6.290583E0,6.380966E0,0E0,3.5331411E0,2.9763645E1,1.2702126E1,3.3050585E0,1.8129196E1,4.6436167E0,7.2006226E0,2.3426392E1,1.1999401E1,1.7404846E1,1.1426054E1,1.0599442E1,1.8708187E1,1.5109478E1,1.57938E1,0E0,1.0003865E1,0E0,0E0,0E0,0E0,0E0,0E0,0E0,0E0,0E0,0E0,0E0,0E0,0E0,0E0,0E0,0E0,0E0,0E0,0E0,0E0,0E0,0E0,0E0,0E0,0E0,0E0,0E0,0E0,0E0,0E0,0E0,0E0,0E0,0E0,0E0,0E0,0E0,0E0,0E0,0E0,0E0,0E0,0E0,0E0,0E0,0E0,0E0,0E0,0E0,0E0,0E0,0E0,0E0,0E0,0E0,0E0,0E0,0E0,0E0,0E0,0E0,0E0,0E0,0E0,0E0,0E0,0E0,0E0,0E0,0E0,0E0,0E0,0E0,0E0,0E0,0E0,0E0,0E0,0E0,0E0,0E0,0E0,0E0,0E0,0E0,0E0,0E0,0E0,0E0,0E0,0E0,0E0,0E0,0E0,0E0,0E0],"parents":[2147483647,0,0,1,1,2,2,3,3,4,4,5,5,6,6,7,7,8,8,9,9,10,10,11,11,12,12,13,13,14,14,15,15,16,16,17,17,18,18,19,19,20,20,21,21,22,22,23,23,24,24,25,25,26,26,27,27,28,28,29,29,30,30,31,31,32,32,33,33,34,34,35,35,37,37,38,38,39,39,40,40,41,41,42,42,43,43,44,44,45,45,46,46,47,47,48,48,49,49,50,50,51,51,52,52,53,53,54,54,56,56,57,57,58,58,60,60,61,61,62,62,65,65,66,66,68,68,69,69,70,70,71,71,73,73,74,74,76,76,77,77,78,78,79,79,80,80,81,81,83,83,84,84,87,87,88,88,89,89,90,90,91,91,92,92,93,93,94,94,95,95,96,96,97,97,98,98,99,99,100,100,101,101,102,102,104,104,105,105,106,106,107,107,108,108,109,109,110,110,111,111,112,112,113,113,114,114,115,115,116,116,117,117,118,118,120,120],"right_children":[2,4,6,8,10,12,14,16,18,20,22,24,26,28,30,32,34,36,38,40,42,44,46,48,50,52,54,56,58,60,62,64,66,68,70,72,-1,74,76,78,80,82,84,86,88,90,92,94,96,98,100,102,104,106,108,-1,110,112,114,-1,116,118,120,-1,-1,122,124,-1,126,128,130,132,-1,134,136,-1,138,140,142,144,146,148,-1,150,152,-1,-1,154,156,158,160,162,164,166,168,170,172,174,176,178,180,182,184,-1,186,188,190,192,194,196,198,200,202,204,206,208,210,212,214,-1,216,-1,-1,-1,-1,-1,-1,-1,-1,-1,-1,-1,-1,-1,-1,-1,-1,-1,-1,-1,-1,-1,-1,-1,-1,-1,-1,-1,-1,-1,-1,-1,-1,-1,-1,-1,-1,-1,-1,-1,-1,-1,-1,-1,-1,-1,-1,-1,-1,-1,-1,-1,-1,-1,-1,-1,-1,-1,-1,-1,-1,-1,-1,-1,-1,-1,-1,-1,-1,-1,-1,-1,-1,-1,-1,-1,-1,-1,-1,-1,-1,-1,-1,-1,-1,-1,-1,-1,-1,-1,-1,-1,-1,-1,-1,-1,-1],"split_conditions":[6.2E1,6E1,4.6052632E-1,6E1,7.5E1,2E0,7.9E1,4.6E1,4.7E1,7.3E1,4.8E1,3.6666667E-1,6E1,6.7E1,7.2E1,2.6E1,4.8E1,8.5E1,5E-1,2.4E1,4.8E1,3.1578946E-1,8E1,6.8E1,1E0,6.6E1,6.6E1,4.2E1,7.8E1,3E0,8.7E1,7.3E1,5.4E1,6.4E1,6.3E1,4.2E1,1.6358638E-2,6.8E1,5.9E1,6.1E1,6.2E1,2.2E1,8.5E1,3.8E1,7.3E1,7.1E1,5.2E1,7.4E1,6.4E1,7.4E1,7.3E1,4E1,6E1,8.5E1,6.4E1,2.776033E-1,5.1E1,8.3E1,5.3333336E-1,-2.239817E-1,7E1,8.6E1,1E0,3.6929175E-1,-1.5998352E-1,7E1,5.1E1,-3.4755334E-2,5.8E1,6.3E1,4E-1,6.5E1,-2.5277933E-1,2.3684211E-1,6.4E1,-2.4601774E-1,6.4E1,6.6E1,6.4E1,5.4E1,3.6842105E-1,4.3E1,2.7911863E-1,7.3E1,5E1,-1.1426369E-1,4.2357937E-1,4.642857E-1,9E0,8E1,5.263158E-1,5.833333E-1,3.4E1,6E1,8.4E1,7.4E1,6.1E1,6.9E1,4.4E1,6.6E1,8.3E1,5.9E1,4.7E1,-1.8907379E-1,7.5E1,6.9E1,1E0,5.9E1,8E1,6.8E1,7.4E1,8.5E1,6.5E1,8E1,4.6E1,6.25E-1,7.3E1,7E1,6.7E1,-1.9620661E-1,8.1E1,-1.8161012E-1,1.3027069E-1,2.7347922E-1,-1.22322656E-1,5.500817E-1,4.7085926E-2,-1.9477127E-2,-2.1050726E-1,-1.0432575E-1,3.2245106E-1,-1.9670415E-1,4.7085926E-2,2.0469466E-1,-1.5393452E-1,2.2452371E-1,-2.2125962E-1,2.0469466E-1,-2.0296791E-1,-1.346255E-1,7.6648004E-2,-2.2170983E-1,1.04385495E-1,1.5140767E-1,-1.389873E-1,1.1059135E-1,2.2015179E-2,-7.051689E-2,-1.6819827E-1,-4.223003E-2,3.5338588E-2,2.1649024E-2,-2.2498123E-1,1.5004724E-1,-1.6468212E-1,-2.0523225E-1,2.7482014E-5,-1.7525576E-1,2.3533264E-1,-9.6781455E-2,1.8305914E-2,1.9463325E-1,-1.7389618E-1,-6.58513E-2,-2.3354979E-1,-1.0432575E-1,3.8008043E-1,-1.8459377E-1,2.1229212E-1,-1.643625E-1,4.7085926E-2,8.475094E-2,5.010841E-1,2.217511E-1,4.9653888E-1,4.5410958E-1,-3.3574313E-2,3.0692586E-1,1.5304336E-2,1.5982369E-2,-2.1645354E-1,3.200495E-1,-1.1426369E-1,1.01858936E-1,-1.9607252E-1,2.560631E-1,-6.484309E-2,2.7301463E-1,-4.3997433E-2,6.1982197E-1,8.279865E-2,5.584673E-2,-2.1117978E-1,7.58357E-2,-7.485222E-2,3.1309673E-1,-7.997802E-2,-1.4030908E-1,-2.0296982E-2,8.2315385E-2,2.8807566E-1,4.2357937E-1,-6.2401127E-2,-3.833742E-2,4.1798177E-1,3.200495E-1,-1.2003584E-1,-9.6784115E-2,3.035066E-1,1.3149652E-2,6.286724E-1,-1.9972147E-1,-6.897196E-2,2.7911863E-1,-2.4115884E-1,-4.8671737E-3,3.1705087E-1],"split_indices":[3,11,0,6,11,13,4,10,12,2,10,0,12,11,5,7,6,7,0,3,10,0,5,9,28,5,5,6,11,13,12,2,6,1,7,5,0,1,11,7,11,13,2,3,1,9,9,5,10,6,1,12,9,6,11,0,10,8,0,0,12,8,28,0,0,5,11,0,11,1,0,6,0,0,12,0,6,1,12,6,0,3,0,5,9,0,0,0,13,12,0,0,3,8,8,1,5,5,9,9,4,4,9,0,4,8,27,6,8,3,9,7,7,12,6,0,10,3,3,0,6,0,0,0,0,0,0,0,0,0,0,0,0,0,0,0,0,0,0,0,0,0,0,0,0,0,0,0,0,0,0,0,0,0,0,0,0,0,0,0,0,0,0,0,0,0,0,0,0,0,0,0,0,0,0,0,0,0,0,0,0,0,0,0,0,0,0,0,0,0,0,0,0,0,0,0,0,0,0,0,0,0,0,0,0,0,0,0,0,0,0,0,0,0,0,0,0],"split_type":[0,0,0,0,0,0,0,0,0,0,0,0,0,0,0,0,0,0,0,0,0,0,0,0,0,0,0,0,0,0,0,0,0,0,0,0,0,0,0,0,0,0,0,0,0,0,0,0,0,0,0,0,0,0,0,0,0,0,0,0,0,0,0,0,0,0,0,0,0,0,0,0,0,0,0,0,0,0,0,0,0,0,0,0,0,0,0,0,0,0,0,0,0,0,0,0,0,0,0,0,0,0,0,0,0,0,0,0,0,0,0,0,0,0,0,0,0,0,0,0,0,0,0,0,0,0,0,0,0,0,0,0,0,0,0,0,0,0,0,0,0,0,0,0,0,0,0,0,0,0,0,0,0,0,0,0,0,0,0,0,0,0,0,0,0,0,0,0,0,0,0,0,0,0,0,0,0,0,0,0,0,0,0,0,0,0,0,0,0,0,0,0,0,0,0,0,0,0,0,0,0,0,0,0,0,0,0,0,0,0,0,0,0,0,0,0,0],"sum_hessian":[3.0009685E3,1.7478622E3,1.2531063E3,2.817802E2,1.4660819E3,4.9831787E2,7.547885E2,1.13049545E2,1.6873067E2,1.1334951E3,3.3258688E2,1.7941693E2,3.1890094E2,4.8575684E2,2.6903168E2,9.0552124E1,2.2497421E1,5.305642E1,1.1567424E2,4.482611E2,6.8523395E2,1.2598556E2,2.0660132E2,6.617992E1,1.1323702E2,7.161679E1,2.4728416E2,1.0311318E2,3.8264365E2,3.018404E1,2.3884763E2,3.7495704E0,8.680255E1,5.9993124E0,1.649811E1,5.0994156E1,2.0622637E0,7.949089E1,3.6183353E1,6.318026E1,3.8508087E2,2.7071896E2,4.1451498E2,3.1871347E0,1.2279842E2,1.5579465E2,5.080668E1,2.0060202E1,4.6119713E1,3.9370487E1,7.386653E1,6.2617825E1,8.998968E0,5.699347E1,1.902907E2,2.0622637E0,1.0105092E2,2.889044E2,9.373926E1,9.936361E0,2.0247679E1,2.1841246E2,2.0435158E1,2.249742E0,1.4998281E0,6.2617825E1,2.4184729E1,1.8747852E0,4.1245275E0,1.143619E1,5.0619197E0,3.9370487E0,4.7057106E1,6.692983E1,1.256106E1,3.1308912E1,4.874441E0,3.412109E1,2.905917E1,4.53698E1,3.3971106E2,2.6903168E2,1.6873066E0,3.9820435E2,1.631063E1,2.0622637E0,1.124871E0,1.0498796E1,1.1229963E2,4.4619884E1,1.1117476E2,3.1871347E0,4.761954E1,1.0873754E1,9.186447E0,4.6869626E0,4.143275E1,2.4184729E1,1.518576E1,3.918301E1,3.4683525E1,3.5620918E0,5.9055733E1,2.4372206E0,6.561748E0,4.649467E1,1.0498796E1,1.631063E1,1.7398006E2,3.3746133E0,9.767631E1,2.3753528E2,5.1369114E1,1.9122808E1,7.461645E1,1.143619E1,8.81149E0,1.8372894E2,3.4683525E1,5.6243553E0,1.4810802E1,6.0930515E1,1.6873066E0,3.9370487E0,2.0247679E1,2.9996562E0,1.124871E0,4.1245275E0,7.311662E0,1.8747852E0,3.1871347E0,2.8121777E0,1.124871E0,1.6873066E0,6.524252E1,7.686619E0,4.874441E0,1.6873066E0,3.1871347E0,1.1623668E1,2.2497421E1,2.7184383E1,1.8747852E0,8.249055E0,3.7120747E1,9.036464E1,2.4934642E2,2.1653769E2,5.2493984E1,2.5328348E2,1.4492088E2,1.3123496E0,1.49982815E1,2.9996562E0,7.4991407E0,1.10799805E2,1.4998281E0,4.3495014E1,1.124871E0,3.8245617E1,7.292914E1,1.3123496E0,1.8747852E0,4.312006E0,4.3307537E1,1.8747852E0,8.998968E0,7.1241837E0,2.0622637E0,3.5620918E0,1.124871E0,4.312006E0,3.7120747E1,9.373925E0,1.4810802E1,1.3123496E0,1.387341E1,1.7248024E1,2.1934986E1,3.037152E1,4.312006E0,1.4998281E0,2.0622637E0,2.4372206E0,5.661851E1,5.249398E0,1.3123496E0,2.0247679E1,2.6246992E1,7.8740973E0,2.624699E0,1.6873066E0,1.4623324E1,1.3292227E2,4.1057793E1,1.8747852E0,1.4998281E0,6.917957E1,2.8496735E1,2.1353802E2,2.399725E1,1.124871E0,5.024424E1,1.5935674E1,3.1871347E0,1.4998281E0,7.311662E1,8.81149E0,2.624699E0,2.8121777E0,5.9993124E0,4.7807022E1,1.3592192E2,1.6873066E0,3.299622E1,9.186447E0,5.6243553E0],"tree_param":{"num_deleted":"0","num_feature":"31","num_nodes":"217","size_leaf_vector":"1"}},{"base_weights":[-9.0951785E-2,-2.4880894E-1,1.0623818E-1,-1.7668363E-1,-5.707132E-1,3.584629E-1,-6.590459E-2,-5.2578497E-1,-5.7737175E-2,-4.8991132E-1,-1.0009562E0,-2.178247E-1,4.902342E-1,1.6747473E-1,-2.1890175E-1,-3.3861227E-2,-5.8766925E-1,-5.3983116E-1,-1.5387116E-2,-6.9457304E-1,-2.5768813E-1,-6.599971E-2,-1.0719056E0,4.7576776E-1,-3.0984217E-1,1.203478E0,3.8336012E-1,-2.8824946E-1,3.7404776E-1,-4.7410827E-2,-5.001555E-1,-9.768536E-1,1.8181902E-1,-8.110189E-1,-4.4774148E-1,-6.1916745E-1,3.0874863E-1,2.6689982E-2,-4.4429862E-1,-6.2117136E-1,-2.383887E-1,3.8163802E-1,-4.6597666E-1,1.6338299E-1,-1.6498937E-1,-8.054365E-1,-2.4043262E-1,-6.120606E-1,1.21826835E-1,1.4683247E0,4.9439368E-1,1.3975169E-1,6.067231E-1,-3.95625E-1,6.962384E-1,4.5303345E-1,-5.886457E-1,-2.9056334E-1,1.1025615E-1,4.1956255E-1,-5.4018384E-1,-2.1504274E-1,-5.1401474E-2,-5.471113E-1,5.572948E-1,-8.389276E-1,1.7546746E-1,-1.4241232E-1,-6.844143E-1,2.2198522E-1,-8.049364E-1,4.350673E-1,-1.841097E-2,-1.0489868E0,-2.9853374E-1,2.010385E-1,-6.639105E-1,7.235651E-2,1.1561016E0,-8.4309924E-1,-1.7540118E-1,-1.1068276E0,5.2143153E-2,7.192578E-1,-6.856057E-1,5.0103897E-1,-5.0001377E-1,-2.8034687E-1,1.6619565E0,-2.4881375E-1,1.3360205E0,5.8798E-1,7.7714265E-4,2.1225138E-1,8.0931973E-1,-4.4961232E-1,7.260465E-1,-1.2793493E-1,1.2016226E0,1.4547704E0,3.751153E-1,5.5905104E-1,-8.574419E-1,-9.36372E-1,-2.0407368E-1,-5.692529E-1,2.3300266E-1,-9.250664E-2,-6.6749054E-1,-1.6235702E-1,1.6049324E-1,2.6368958E-1,1.0125825E-2,1.5781972E-1,-1.7362401E-1,-8.313217E-2,5.410294E-2,1.7778447E-1,-1.44264E-1,-1.0615257E-1,2.4118279E-1,-9.279321E-2,-2.1150358E-1,5.1836677E-2,2.548194E-1,-7.7789025E-3,1.7976722E-1,-2.3010258E-1,-6.7332454E-2,6.325822E-2,-1.0724526E-1,2.290533E-1,-1.4478046E-1,-2.1486922E-1,-1.0330274E-1,-4.3911148E-2,2.2958942E-1,1.3181237E-2,5.340359E-1,4.9393002E-2,-1.8008034E-1,-2.2234932E-1,-4.331962E-3,-3.16264E-2,-2.352088E-1,-1.1483648E-1,1.3215914E-1,3.1413358E-1,-1.3206355E-1,-2.3266819E-1,-9.346516E-2,-1.7014232E-1,1.5427972E-1,-1.6764101E-1,1.221173E-1,-2.015091E-1,2.4790974E-1,3.7358055E-1,1.5452766E-1,2.4324441E-1,-1.1270877E-1,4.3431947E-1,-1.144038E-2,4.9200676E-2,4.0864477E-1,-2.1900764E-1,1.7469643E-2,-7.280334E-2,1.4216855E-1,1.7621239E-1,-1.8885109E-1,2.0943224E-1,-9.8330274E-2,-7.283158E-2,2.7306044E-1,3.339504E-1,-3.233605E-2,4.0382376E-1,-6.513881E-2,5.8983494E-2,2.2828205E-1,3.1989077E-1,-1.5489836E-1,9.937144E-2,-2.3382942E-1,-2.2947071E-1,-1.1670392E-1,4.707897E-3,-1.2394257E-1,-2.2107938E-1,9.4551843E-4,8.009921E-2,-9.4820134E-2,-7.5954795E-2,3.6903876E-1,-1.6396205E-1,-7.535156E-2],"categories":[],"categories_nodes":[],"categories_segments":[],"categories_sizes":[],"default_left":[0,0,0,0,0,0,0,0,0,0,0,0,0,0,0,0,0,0,0,0,0,0,0,0,0,0,0,0,0,0,0,0,0,0,0,0,0,0,0,0,0,0,0,0,0,0,0,0,0,0,0,0,0,0,0,0,0,0,0,0,0,0,0,0,0,0,0,0,0,0,0,0,0,0,0,0,0,0,0,0,0,0,0,0,0,0,0,0,0,0,0,0,0,0,0,0,0,0,0,0,0,0,0,0,0,0,0,0,0,0,0,0,0,0,0,0,0,0,0,0,0,0,0,0,0,0,0,0,0,0,0,0,0,0,0,0,0,0,0,0,0,0,0,0,0,0,0,0,0,0,0,0,0,0,0,0,0,0,0,0,0,0,0,0,0,0,0,0,0,0,0,0,0,0,0,0,0,0,0,0,0,0,0,0,0,0,0,0,0,0,0,0,0,0,0,0,0],"id":1,"left_children":[1,3,5,7,9,11,13,15,17,19,21,23,25,27,29,31,33,35,37,39,41,43,45,-1,47,49,51,53,55,57,59,61,63,65,67,69,-1,71,73,75,-1,77,79,-1,-1,81,-1,83,85,87,89,91,93,95,97,99,101,103,105,-1,107,-1,-1,109,111,113,-1,115,117,119,121,123,125,127,129,131,133,135,137,139,141,143,145,147,149,151,153,155,157,159,161,163,165,167,169,171,173,-1,175,177,179,181,183,185,187,189,191,193,195,-1,-1,-1,-1,-1,-1,-1,-1,-1,-1,-1,-1,-1,-1,-1,-1,-1,-1,-1,-1,-1,-1,-1,-1,-1,-1,-1,-1,-1,-1,-1,-1,-1,-1,-1,-1,-1,-1,-1,-1,-1,-1,-1,-1,-1,-1,-1,-1,-1,-1,-1,-1,-1,-1,-1,-1,-1,-1,-1,-1,-1,-1,-1,-1,-1,-1,-1,-1,-1,-1,-1,-1,-1,-1,-1,-1,-1,-1,-1,-1,-1,-1,-1,-1,-1,-1,-1,-1],"loss_changes":[9.2674995E1,3.828592E1,5.7511234E1,5.6117527E1,1.0015129E1,4.090396E1,2.8165703E1,1.04372635E1,2.060563E1,1.2005573E1,3.035122E0,2.479202E1,3.2893227E1,2.9528023E1,2.2948128E1,8.200272E0,9.170898E0,1.4428532E1,1.6780684E1,4.213051E0,1.6382355E1,3.6008728E0,5.39978E-1,0E0,1.2874294E1,9.894905E0,2.0701756E1,1.0639162E1,1.6651196E1,1.1417203E1,1.9882858E1,2.5465918E-1,9.322136E0,6.2147217E0,1.361734E1,1.2558737E1,0E0,1.5609913E1,7.0084286E0,4.3616333E0,0E0,7.21062E0,9.959507E0,0E0,0E0,4.528468E0,0E0,6.15987E0,9.974754E0,1.4235924E1,1.0895166E1,1.1462884E1,1.573111E1,5.7180786E0,7.5226135E0,1.5041718E1,5.653886E0,6.349265E0,1.5219475E1,0E0,1.0103287E1,0E0,0E0,4.8326654E0,8.51032E0,6.1453934E0,0E0,9.605785E0,6.833988E0,1.1835687E1,5.116913E0,1.2108397E1,1.4385646E1,7.50721E-1,1.0155159E1,6.691838E0,6.3785477E0,7.4198008E0,1.4059005E1,2.7132301E0,7.657095E0,6.574373E-1,2.4582412E0,5.1691494E0,5.229082E0,1.0200471E1,6.5670996E0,6.675643E0,5.2890244E0,5.209039E0,9.525915E0,2.1171541E1,1.35165825E1,2.0048378E1,1.7326584E1,5.8988075E0,3.6131306E0,0E0,5.1237144E0,1.4790091E1,1.1133179E1,6.4946995E0,6.484603E0,3.392992E-1,9.904842E0,8.611254E0,1.8418907E1,2.3328625E1,5.8336716E0,0E0,0E0,0E0,0E0,0E0,0E0,0E0,0E0,0E0,0E0,0E0,0E0,0E0,0E0,0E0,0E0,0E0,0E0,0E0,0E0,0E0,0E0,0E0,0E0,0E0,0E0,0E0,0E0,0E0,0E0,0E0,0E0,0E0,0E0,0E0,0E0,0E0,0E0,0E0,0E0,0E0,0E0,0E0,0E0,0E0,0E0,0E0,0E0,0E0,0E0,0E0,0E0,0E0,0E0,0E0,0E0,0E0,0E0,0E0,0E0,0E0,0E0,0E0,0E0,0E0,0E0,0E0,0E0,0E0,0E0,0E0,0E0,0E0,0E0,0E0,0E0,0E0,0E0,0E0,0E0,0E0,0E0,0E0,0E0,0E0,0E0,0E0,0E0],"parents":[2147483647,0,0,1,1,2,2,3,3,4,4,5,5,6,6,7,7,8,8,9,9,10,10,11,11,12,12,13,13,14,14,15,15,16,16,17,17,18,18,19,19,20,20,21,21,22,22,24,24,25,25,26,26,27,27,28,28,29,29,30,30,31,31,32,32,33,33,34,34,35,35,37,37,38,38,39,39,41,41,42,42,45,45,47,47,48,48,49,49,50,50,51,51,52,52,53,53,54,54,55,55,56,56,57,57,58,58,60,60,63,63,64,64,65,65,67,67,68,68,69,69,70,70,71,71,72,72,73,73,74,74,75,75,76,76,77,77,78,78,79,79,80,80,81,81,82,82,83,83,84,84,85,85,86,86,87,87,88,88,89,89,90,90,91,91,92,92,93,93,94,94,95,95,96,96,98,98,99,99,100,100,101,101,102,102,103,103,104,104,105,105,106,106,107,107,108,108],"right_children":[2,4,6,8,10,12,14,16,18,20,22,24,26,28,30,32,34,36,38,40,42,44,46,-1,48,50,52,54,56,58,60,62,64,66,68,70,-1,72,74,76,-1,78,80,-1,-1,82,-1,84,86,88,90,92,94,96,98,100,102,104,106,-1,108,-1,-1,110,112,114,-1,116,118,120,122,124,126,128,130,132,134,136,138,140,142,144,146,148,150,152,154,156,158,160,162,164,166,168,170,172,174,-1,176,178,180,182,184,186,188,190,192,194,196,-1,-1,-1,-1,-1,-1,-1,-1,-1,-1,-1,-1,-1,-1,-1,-1,-1,-1,-1,-1,-1,-1,-1,-1,-1,-1,-1,-1,-1,-1,-1,-1,-1,-1,-1,-1,-1,-1,-1,-1,-1,-1,-1,-1,-1,-1,-1,-1,-1,-1,-1,-1,-1,-1,-1,-1,-1,-1,-1,-1,-1,-1,-1,-1,-1,-1,-1,-1,-1,-1,-1,-1,-1,-1,-1,-1,-1,-1,-1,-1,-1,-1,-1,-1,-1,-1,-1,-1],"split_conditions":[6.1E1,7.5E1,4.6052632E-1,6.2E1,8.2E1,6E1,7.2E1,4.4E1,3.3E1,7.2E1,5.5E-1,4.7E1,7E1,6.7E1,6.666667E-1,1.4E1,4.7E1,8.9E1,8.1E1,8E1,7.3E1,8.4E1,6.8333334E-1,4.7576776E-1,6.8E1,4.2857143E-1,7.2E1,8.1E1,9.1E1,7E1,4.6E1,5.6E1,4.0789473E-1,8.4E1,6.6E1,2.5E1,3.0874863E-1,5.8E1,6.5E1,3.1666666E-1,-2.383887E-1,8.3E1,8.1E1,1.6338299E-1,-1.6498937E-1,6.5E-1,-2.4043262E-1,4E1,4.0789473E-1,5.9E1,7E1,6.6E1,6.8E1,7.4E1,6.3E1,6.3E1,7.7E1,7.3E1,7.2E1,4.1956255E-1,7.5E1,-2.1504274E-1,-5.1401474E-2,4.2E1,2.3E1,5.2E1,1.7546746E-1,5.9E1,3.6E1,3.6E1,6.9E1,6.315789E-1,7.6E1,6E1,7.5E1,6.7E1,4.3421054E-1,8.5E1,6.666667E-1,5.3E1,6.6E1,7.7E1,8.1E1,5.9E1,3.2142857E-1,2.9411766E-1,4.473684E-1,3.6842105E-1,7E1,6.5E1,7.6E1,8.6E1,6.7E1,7.6E1,8.4E1,5.9E1,5.735294E-1,-1.2793493E-1,6.9E1,6.7105263E-1,8.8E1,6.6E1,4.9E1,6.5E1,7.7E1,7.2E1,7.8E1,8E1,7.8E1,-1.6235702E-1,1.6049324E-1,2.6368958E-1,1.0125825E-2,1.5781972E-1,-1.7362401E-1,-8.313217E-2,5.410294E-2,1.7778447E-1,-1.44264E-1,-1.0615257E-1,2.4118279E-1,-9.279321E-2,-2.1150358E-1,5.1836677E-2,2.548194E-1,-7.7789025E-3,1.7976722E-1,-2.3010258E-1,-6.7332454E-2,6.325822E-2,-1.0724526E-1,2.290533E-1,-1.4478046E-1,-2.1486922E-1,-1.0330274E-1,-4.3911148E-2,2.2958942E-1,1.3181237E-2,5.340359E-1,4.9393002E-2,-1.8008034E-1,-2.2234932E-1,-4.331962E-3,-3.16264E-2,-2.352088E-1,-1.1483648E-1,1.3215914E-1,3.1413358E-1,-1.3206355E-1,-2.3266819E-1,-9.346516E-2,-1.7014232E-1,1.5427972E-1,-1.6764101E-1,1.221173E-1,-2.015091E-1,2.4790974E-1,3.7358055E-1,1.5452766E-1,2.4324441E-1,-1.1270877E-1,4.3431947E-1,-1.144038E-2,4.9200676E-2,4.0864477E-1,-2.1900764E-1,1.7469643E-2,-7.280334E-2,1.4216855E-1,1.7621239E-1,-1.8885109E-1,2.0943224E-1,-9.8330274E-2,-7.283158E-2,2.7306044E-1,3.339504E-1,-3.233605E-2,4.0382376E-1,-6.513881E-2,5.8983494E-2,2.2828205E-1,3.1989077E-1,-1.5489836E-1,9.937144E-2,-2.3382942E-1,-2.2947071E-1,-1.1670392E-1,4.707897E-3,-1.2394257E-1,-2.2107938E-1,9.4551843E-4,8.009921E-2,-9.4820134E-2,-7.5954795E-2,3.6903876E-1,-1.6396205E-1,-7.535156E-2],"split_indices":[3,11,0,11,1,12,5,6,12,6,0,7,2,11,0,4,12,9,7,5,5,2,0,0,11,0,11,9,6,3,6,11,0,2,6,12,0,9,11,0,0,9,8,0,0,0,0,12,0,5,7,5,9,1,8,3,2,5,11,0,4,0,0,6,4,1,0,11,8,5,9,0,4,3,8,8,0,8,0,4,9,11,11,4,0,0,0,0,12,2,7,6,1,7,11,1,0,0,1,0,9,9,9,3,1,8,9,6,3,0,0,0,0,0,0,0,0,0,0,0,0,0,0,0,0,0,0,0,0,0,0,0,0,0,0,0,0,0,0,0,0,0,0,0,0,0,0,0,0,0,0,0,0,0,0,0,0,0,0,0,0,0,0,0,0,0,0,0,0,0,0,0,0,0,0,0,0,0,0,0,0,0,0,0,0,0,0,0,0,0,0,0,0,0,0,0,0],"split_type":[0,0,0,0,0,0,0,0,0,0,0,0,0,0,0,0,0,0,0,0,0,0,0,0,0,0,0,0,0,0,0,0,0,0,0,0,0,0,0,0,0,0,0,0,0,0,0,0,0,0,0,0,0,0,0,0,0,0,0,0,0,0,0,0,0,0,0,0,0,0,0,0,0,0,0,0,0,0,0,0,0,0,0,0,0,0,0,0,0,0,0,0,0,0,0,0,0,0,0,0,0,0,0,0,0,0,0,0,0,0,0,0,0,0,0,0,0,0,0,0,0,0,0,0,0,0,0,0,0,0,0,0,0,0,0,0,0,0,0,0,0,0,0,0,0,0,0,0,0,0,0,0,0,0,0,0,0,0,0,0,0,0,0,0,0,0,0,0,0,0,0,0,0,0,0,0,0,0,0,0,0,0,0,0,0,0,0,0,0,0,0,0,0,0,0,0,0],"sum_hessian":[2.9753882E3,1.6523584E3,1.3230299E3,1.3511671E3,3.0119125E2,5.3624207E2,7.867878E2,3.425071E2,1.00866003E3,2.5537009E2,4.5821175E1,9.967428E1,4.365678E2,3.1151437E2,4.7527344E2,3.844572E1,3.040614E2,8.050302E1,9.2815704E2,1.3468193E2,1.2068815E2,3.3680418E0,4.2453133E1,2.560718E0,9.711356E1,5.5554424E1,3.8101337E2,9.70392E1,2.1447516E2,2.9597498E2,1.7929845E2,6.4995136E0,3.1946205E1,1.1527153E2,1.8878986E2,7.82272E1,2.2758229E0,8.460915E2,8.206554E1,1.1932145E2,1.5360486E1,2.9452778E1,9.123537E1,1.521564E0,1.8464777E0,1.6297201E1,2.615593E1,5.6875923E1,4.023764E1,3.9667625E1,1.5886798E1,1.8302492E2,1.9798845E2,8.803553E1,9.003664E0,1.9870178E2,1.5773386E1,1.1609361E2,1.7988136E2,1.940576E0,1.7735786E2,5.2838545E0,1.2156593E0,1.0705656E1,2.124055E1,1.1389199E2,1.3795395E0,8.313718E1,1.0565268E2,1.4115947E1,6.411125E1,8.328859E1,7.628029E2,1.4736502E1,6.732903E1,5.7129354E0,1.1360851E2,2.1828863E1,7.623914E0,3.887721E1,5.2358162E1,1.1844044E1,4.4531584E0,2.5178483E0,5.4358074E1,2.5115759E1,1.5121881E1,3.9098961E0,3.5757732E1,8.810743E0,7.0760546E0,4.2552242E1,1.4047267E2,6.787603E1,1.3011243E2,8.456451E1,3.471027E0,2.3983192E0,6.605345E0,1.3064935E1,1.8563684E2,2.788275E0,1.2985111E1,1.2550918E1,1.03542694E2,2.6965603E1,1.5291577E2,3.9650955E1,1.3770691E2,9.283502E0,1.4221547E0,7.848185E0,1.33923645E1,1.5476981E0,1.1234429E2,5.002634E1,3.3110836E1,1.892365E0,1.03760315E2,8.258446E0,5.857501E0,2.8489279E1,3.5621975E1,6.99368E1,1.3351788E1,7.470771E2,1.5725787E1,1.235974E1,2.3767614E0,1.8679981E1,4.8649055E1,2.7091193E0,3.0038161E0,2.8357237E1,8.5251274E1,1.7795177E1,4.033686E0,5.0390964E0,2.5848176E0,1.7763253E0,3.7100883E1,6.5055475E0,4.5852615E1,1.0287229E0,1.0815321E1,2.2226276E0,2.230531E0,1.4713091E0,1.0465391E0,1.5689622E1,3.866845E1,3.8283064E0,2.1287453E1,1.1779997E1,3.3418837E0,2.8725915E0,1.0373046E0,2.8140617E1,7.6171136E0,1.0515509E0,7.759192E0,4.074006E0,3.0020483E0,3.5401966E1,7.150277E0,9.432114E0,1.3104056E2,3.1610624E1,3.6265408E1,1.25476494E2,4.635928E0,1.6570498E0,8.2907455E1,1.442052E0,2.028975E0,4.7496357E0,1.8557093E0,9.818694E0,3.2462413E0,1.6930302E2,1.6333818E1,1.4542764E0,1.3339986E0,2.318346E0,1.0666765E1,6.445373E0,6.1055446E0,6.751394E1,3.602876E1,1.3463637E1,1.3501965E1,1.2398155E2,2.8934216E1,3.5231792E1,4.4191647E0,8.9169655E1,4.8537254E1],"tree_param":{"num_deleted":"0","num_feature":"31","num_nodes":"197","size_leaf_vector":"1"}},{"base_weights":[-9.8804474E-2,-2.2646727E-1,5.817178E-2,-1.7118347E-1,-6.3100326E-1,3.989851E-1,-3.646253E-2,-5.354842E-1,-9.9066496E-2,1.4582999E0,-6.7231005E-1,9.356491E-2,7.0266753E-1,4.649227E-2,-3.7553367E-1,2.7193367E-1,-5.752268E-1,6.145149E-1,-1.2288961E-1,-5.9414487E-2,4.5695773E-1,-7.996059E-1,-5.0572574E-1,4.4190085E-1,-1.663339E-1,8.275165E-1,-2.0723294E-1,-5.3098065E-1,8.2800426E-2,-4.6046954E-1,2.5415266E-1,-2.9798615E-1,1.3366836E0,-7.3969626E-1,-3.8406348E-1,2.3004338E-2,2.1063888E0,-4.459806E-1,-8.1564635E-2,-1.8993582E-1,-8.555244E-1,-6.396719E-1,2.3831996E-1,-1.7910948E-1,8.7884927E-1,4.6627125E-1,-5.4890263E-1,6.786367E-1,1.7712741E0,1.1271E0,-5.219653E-1,1.2379475E0,-6.427244E-1,1.2405728E-1,-4.193816E-1,-5.3276116E-1,1.933084E-1,1.2093946E0,-1.0563616E0,-7.656769E-1,1.60728E-1,4.1342425E-1,-5.179884E-2,1.581177E-1,-7.6622134E-1,-5.148809E-1,4.3537548E-1,1.8214251E0,-2.5259084E-1,5.8838755E-1,2.56514E0,3.9550188E-1,-4.8302928E-1,6.808535E-2,-1.6427201E-1,1.0430183E0,-7.320647E-1,-9.84026E-1,-5.2617073E-1,-7.0492077E-1,2.424693E-1,9.572232E-1,-6.6945827E-1,5.070435E-1,-7.5984615E-1,1.0019567E0,-1.2820585E-1,6.342402E-2,1.6939262E0,2.1138835E-1,-6.340204E-1,1.306026E0,4.4535255E-1,2.014236E0,-1.4766966E-1,4.2380992E-1,-1.3583119E-1,-9.2714953E-1,6.3971776E-1,4.729262E-2,3.3023486E-1,2.2626677E-1,-7.2925276E-1,-2.9029861E-2,2.5553456E-1,-6.685057E-1,-3.6929477E-2,-9.297358E-1,-4.1199496E-1,9.930386E-1,-5.849741E-1,1.5292468E0,-1.5893058E-1,-2.2488461E-1,-7.9464346E-2,-2.0202771E-1,-1.1948139E-3,2.9065609E-2,-1.5856658E-1,1.5579173E-1,-1.2309519E-1,-1.9592641E-1,1.7354594E-1,1.0082964E-1,4.635112E-1,-2.1327575E-1,4.271991E-2,2.7826613E-1,-7.934254E-2,1.1166995E-1,5.730749E-1,-1.7298466E-1,2.3362973E-1,-2.0272307E-1,-8.059683E-2,5.5567306E-2,-4.1163277E-2,-5.816086E-2,2.8254013E-3,-1.4148328E-1,4.5354557E-1,7.493162E-2,-2.163258E-1,-2.0424019E-1,6.613797E-2,1.1445099E-1,-1.6883136E-1,-1.9626703E-2,-1.5745176E-1,2.899159E-1,1.3602497E-2,-1.6971946E-1,-2.8487517E-2,2.475243E-1,-1.8581237E-1,-1.7988628E-1,1.0970752E-2,7.124445E-2,2.7588305E-1,3.324519E-1,-1.0131667E-1,-1.5723817E-1,4.5758858E-1,-8.745912E-2,-2.2132182E-1,3.1846127E-1,1.8361924E-2,1.1240093E-1,-1.4659129E-1,5.8739007E-2,4.8795056E-1,-4.5046356E-2,-2.4363172E-1,3.3497423E-1,-1.6468865E-1,1.8820079E-2,-1.8428034E-1,-1.4112888E-1,1.0438321E-2,-2.693825E-2,6.780869E-2,-1.5107724E-1,1.6357562E-2,-1.3797699E-1,1.9212273E-1,-2.2016001E-1,-7.953283E-2,2.2572389E-2,-1.06699705E-1,-1.4285976E-1,2.6258788E-1,-1.9853798E-1,1.12317584E-1,1.8619518E-1,5.2177805E-1],"categories":[],"categories_nodes":[],"categories_segments":[],"categories_sizes":[],"default_left":[0,0,0,0,0,0,0,0,0,0,0,0,0,0,0,0,0,0,0,0,0,0,0,0,0,0,0,0,0,0,0,0,0,0,0,0,0,0,0,0,0,0,0,0,0,0,0,0,0,0,0,0,0,0,0,0,0,0,0,0,0,0,0,0,0,0,0,0,0,0,0,0,0,0,0,0,0,0,0,0,0,0,0,0,0,0,0,0,0,0,0,0,0,0,0,0,0,0,0,0,0,0,0,0,0,0,0,0,0,0,0,0,0,0,0,0,0,0,0,0,0,0,0,0,0,0,0,0,0,0,0,0,0,0,0,0,0,0,0,0,0,0,0,0,0,0,0,0,0,0,0,0,0,0,0,0,0,0,0,0,0,0,0,0,0,0,0,0,0,0,0,0,0,0,0,0,0,0,0,0,0,0,0,0,0,0,0,0,0,0,0,0,0,0,0],"id":2,"left_children":[1,3,5,7,9,11,13,15,17,19,21,23,25,27,29,31,33,35,37,-1,-1,39,41,43,45,47,49,51,53,55,57,59,61,63,65,67,69,71,73,75,77,79,81,83,85,87,89,91,93,95,97,99,101,103,105,107,109,111,113,115,-1,-1,-1,-1,117,119,121,123,125,127,129,131,133,135,137,139,141,143,145,147,-1,149,151,153,155,157,-1,159,161,-1,163,165,167,169,-1,-1,-1,171,173,-1,-1,-1,175,177,179,181,183,185,187,189,191,193,-1,-1,-1,-1,-1,-1,-1,-1,-1,-1,-1,-1,-1,-1,-1,-1,-1,-1,-1,-1,-1,-1,-1,-1,-1,-1,-1,-1,-1,-1,-1,-1,-1,-1,-1,-1,-1,-1,-1,-1,-1,-1,-1,-1,-1,-1,-1,-1,-1,-1,-1,-1,-1,-1,-1,-1,-1,-1,-1,-1,-1,-1,-1,-1,-1,-1,-1,-1,-1,-1,-1,-1,-1,-1,-1,-1,-1,-1,-1,-1,-1,-1,-1],"loss_changes":[5.8073406E1,3.5630013E1,4.1950005E1,3.6918385E1,1.7529243E1,2.6150776E1,2.866716E1,7.6112137E0,2.0065933E1,6.5300055E0,3.5975266E0,1.2936143E1,1.62547E1,1.7220963E1,1.08308525E1,7.42386E0,6.6875E0,3.3623478E1,1.5168154E1,0E0,0E0,3.4258194E0,8.570517E0,1.6705257E1,2.0124086E1,1.6318443E1,8.097958E0,1.0401664E1,1.6039282E1,8.462276E0,3.1889856E1,4.921972E0,5.452528E0,5.400009E0,1.1439902E1,1.4503691E1,6.02726E0,4.2100124E0,1.2522703E1,7.533423E0,3.5505295E0,9.537296E0,9.525835E0,1.0752601E1,7.371813E0,1.5460306E1,7.725377E0,1.5419296E1,1.1468422E1,8.121143E0,7.72535E0,9.4594526E-1,7.9427757E0,1.4375086E1,5.5786133E0,7.2647514E0,1.1998386E1,1.0580305E1,3.9621353E-2,1.1788137E0,0E0,0E0,0E0,0E0,2.94384E0,1.2282053E1,9.993424E0,1.3718462E0,9.882111E0,3.564991E0,3.2281036E0,6.8401318E0,4.8548107E0,2.0769499E1,1.470686E1,9.119566E0,3.3541641E0,3.6610718E0,1.0656997E1,3.4219894E0,0E0,3.40795E0,5.0274277E-1,1.4292056E1,1.6973066E0,7.713146E0,0E0,2.3388588E1,1.3199184E1,0E0,4.131428E0,9.974422E0,1.1574522E1,1.0406479E1,0E0,0E0,0E0,2.1037703E0,8.2101345E0,0E0,0E0,0E0,7.1774254E0,1.8211226E1,1.2563206E1,2.3793983E0,1.6461868E1,2.8766308E0,7.9749794E0,6.081711E0,5.1975408E0,5.9301605E0,0E0,0E0,0E0,0E0,0E0,0E0,0E0,0E0,0E0,0E0,0E0,0E0,0E0,0E0,0E0,0E0,0E0,0E0,0E0,0E0,0E0,0E0,0E0,0E0,0E0,0E0,0E0,0E0,0E0,0E0,0E0,0E0,0E0,0E0,0E0,0E0,0E0,0E0,0E0,0E0,0E0,0E0,0E0,0E0,0E0,0E0,0E0,0E0,0E0,0E0,0E0,0E0,0E0,0E0,0E0,0E0,0E0,0E0,0E0,0E0,0E0,0E0,0E0,0E0,0E0,0E0,0E0,0E0,0E0,0E0,0E0,0E0,0E0,0E0,0E0,0E0,0E0,0E0,0E0,0E0,0E0,0E0,0E0],"parents":[2147483647,0,0,1,1,2,2,3,3,4,4,5,5,6,6,7,7,8,8,9,9,10,10,11,11,12,12,13,13,14,14,15,15,16,16,17,17,18,18,21,21,22,22,23,23,24,24,25,25,26,26,27,27,28,28,29,29,30,30,31,31,32,32,33,33,34,34,35,35,36,36,37,37,38,38,39,39,40,40,41,41,42,42,43,43,44,44,45,45,46,46,47,47,48,48,49,49,50,50,51,51,52,52,53,53,54,54,55,55,56,56,57,57,58,58,59,59,64,64,65,65,66,66,67,67,68,68,69,69,70,70,71,71,72,72,73,73,74,74,75,75,76,76,77,77,78,78,79,79,81,81,82,82,83,83,84,84,85,85,87,87,88,88,90,90,91,91,92,92,93,93,97,97,98,98,102,102,103,103,104,104,105,105,106,106,107,107,108,108,109,109,110,110,111,111],"right_children":[2,4,6,8,10,12,14,16,18,20,22,24,26,28,30,32,34,36,38,-1,-1,40,42,44,46,48,50,52,54,56,58,60,62,64,66,68,70,72,74,76,78,80,82,84,86,88,90,92,94,96,98,100,102,104,106,108,110,112,114,116,-1,-1,-1,-1,118,120,122,124,126,128,130,132,134,136,138,140,142,144,146,148,-1,150,152,154,156,158,-1,160,162,-1,164,166,168,170,-1,-1,-1,172,174,-1,-1,-1,176,178,180,182,184,186,188,190,192,194,-1,-1,-1,-1,-1,-1,-1,-1,-1,-1,-1,-1,-1,-1,-1,-1,-1,-1,-1,-1,-1,-1,-1,-1,-1,-1,-1,-1,-1,-1,-1,-1,-1,-1,-1,-1,-1,-1,-1,-1,-1,-1,-1,-1,-1,-1,-1,-1,-1,-1,-1,-1,-1,-1,-1,-1,-1,-1,-1,-1,-1,-1,-1,-1,-1,-1,-1,-1,-1,-1,-1,-1,-1,-1,-1,-1,-1,-1,-1,-1,-1,-1,-1],"split_conditions":[6.1E1,7.8E1,3.9473686E-1,6E1,2.9411766E-1,7.1E1,8.4E1,5.4E1,3.9E1,8.3E1,8.1E1,7.2E1,8.4E1,5.4E1,8.6E1,4.3E1,6.7E1,8.3E1,2.3E1,-5.9414487E-2,4.5695773E-1,7E1,7.6E1,6.7E1,1E0,7.8E1,7.3E1,5.3E1,8.1E1,8.7E1,8.3E1,4.7058824E-1,5.4E1,2.2E1,6.2E1,1.2E1,3.3E1,3E1,7.3E1,2.6E1,8.1E1,8.1E1,6.7E1,6.2E1,8.2E1,7.3E1,4.4E1,6.6E1,8.6E1,7.1E1,8.1E1,4.4E1,4.3E1,6.9E1,7.8E1,6.1E1,8.9E1,7.9E1,8.5E1,5.3E1,1.60728E-1,4.1342425E-1,-5.179884E-2,1.581177E-1,3.4E1,1.7E1,3.8235295E-1,7.3E1,5.2E1,5.1E1,3.2E1,6.7E1,4.8E1,6.8E1,6.1E1,3.5E1,1.4E1,9.2E1,8E1,8.2E1,2.424693E-1,8E1,6E1,3.4210527E-1,3.6842105E-1,6.8E1,-1.2820585E-1,7E1,6.4E1,2.1138835E-1,7.8E1,7.6E1,7.8E1,6.9E1,-1.4766966E-1,4.2380992E-1,-1.3583119E-1,8.5E1,3.5714287E-1,4.729262E-2,3.3023486E-1,2.2626677E-1,5.7E1,6.1E1,6.8E1,9.1E1,7.8E1,8.7E1,6.7E1,5.1E1,8.8E1,6.447368E-1,-1.5893058E-1,-2.2488461E-1,-7.9464346E-2,-2.0202771E-1,-1.1948139E-3,2.9065609E-2,-1.5856658E-1,1.5579173E-1,-1.2309519E-1,-1.9592641E-1,1.7354594E-1,1.0082964E-1,4.635112E-1,-2.1327575E-1,4.271991E-2,2.7826613E-1,-7.934254E-2,1.1166995E-1,5.730749E-1,-1.7298466E-1,2.3362973E-1,-2.0272307E-1,-8.059683E-2,5.5567306E-2,-4.1163277E-2,-5.816086E-2,2.8254013E-3,-1.4148328E-1,4.5354557E-1,7.493162E-2,-2.163258E-1,-2.0424019E-1,6.613797E-2,1.1445099E-1,-1.6883136E-1,-1.9626703E-2,-1.5745176E-1,2.899159E-1,1.3602497E-2,-1.6971946E-1,-2.8487517E-2,2.475243E-1,-1.8581237E-1,-1.7988628E-1,1.0970752E-2,7.124445E-2,2.7588305E-1,3.324519E-1,-1.0131667E-1,-1.5723817E-1,4.5758858E-1,-8.745912E-2,-2.2132182E-1,3.1846127E-1,1.8361924E-2,1.1240093E-1,-1.4659129E-1,5.8739007E-2,4.8795056E-1,-4.5046356E-2,-2.4363172E-1,3.3497423E-1,-1.6468865E-1,1.8820079E-2,-1.8428034E-1,-1.4112888E-1,1.0438321E-2,-2.693825E-2,6.780869E-2,-1.5107724E-1,1.6357562E-2,-1.3797699E-1,1.9212273E-1,-2.2016001E-1,-7.953283E-2,2.2572389E-2,-1.06699705E-1,-1.4285976E-1,2.6258788E-1,-1.9853798E-1,1.12317584E-1,1.8619518E-1,5.2177805E-1],"split_indices":[3,1,0,11,0,10,2,1,6,9,9,6,8,12,9,3,9,9,3,0,0,11,6,1,16,1,11,4,11,12,1,0,12,9,12,3,4,8,2,12,11,7,4,6,2,1,9,8,9,3,10,12,10,3,4,9,12,12,7,11,0,0,0,0,7,4,0,11,8,8,7,11,6,6,10,8,10,8,1,9,0,7,3,0,0,12,0,2,12,0,2,10,11,6,0,0,0,8,0,0,0,0,8,8,11,8,3,2,9,9,11,0,0,0,0,0,0,0,0,0,0,0,0,0,0,0,0,0,0,0,0,0,0,0,0,0,0,0,0,0,0,0,0,0,0,0,0,0,0,0,0,0,0,0,0,0,0,0,0,0,0,0,0,0,0,0,0,0,0,0,0,0,0,0,0,0,0,0,0,0,0,0,0,0,0,0,0,0,0,0,0,0,0,0,0],"split_type":[0,0,0,0,0,0,0,0,0,0,0,0,0,0,0,0,0,0,0,0,0,0,0,0,0,0,0,0,0,0,0,0,0,0,0,0,0,0,0,0,0,0,0,0,0,0,0,0,0,0,0,0,0,0,0,0,0,0,0,0,0,0,0,0,0,0,0,0,0,0,0,0,0,0,0,0,0,0,0,0,0,0,0,0,0,0,0,0,0,0,0,0,0,0,0,0,0,0,0,0,0,0,0,0,0,0,0,0,0,0,0,0,0,0,0,0,0,0,0,0,0,0,0,0,0,0,0,0,0,0,0,0,0,0,0,0,0,0,0,0,0,0,0,0,0,0,0,0,0,0,0,0,0,0,0,0,0,0,0,0,0,0,0,0,0,0,0,0,0,0,0,0,0,0,0,0,0,0,0,0,0,0,0,0,0,0,0,0,0,0,0,0,0,0,0],"sum_hessian":[2.8962139E3,1.5969957E3,1.2992183E3,1.4062422E3,1.9075357E2,2.8165564E2,1.0175626E3,2.3131636E2,1.1749258E3,3.033137E0,1.8772043E2,1.4107823E2,1.405774E2,8.182404E2,1.9932217E2,1.0577605E1,2.2073875E2,3.7156933E1,1.1377688E3,1.1760006E0,1.8571364E0,1.04254265E2,8.346616E1,5.9983524E1,8.109471E1,1.2369547E2,1.6881918E1,4.759699E1,7.7064343E2,1.7586868E2,2.345349E1,7.3588367E0,3.2187681E0,1.171113E2,1.0362746E2,2.733453E1,9.822403E0,1.2791319E2,1.00985565E3,9.12816E0,9.512611E1,7.085147E1,1.2614695E1,2.501756E1,3.4965965E1,3.0478127E1,5.0616585E1,1.0832592E2,1.5369559E1,2.7293754E0,1.4152542E1,2.2292361E0,4.5367752E1,7.1283344E2,5.7809994E1,1.5852486E2,1.7343815E1,1.3610138E1,9.843352E0,5.379816E0,1.979021E0,2.0053492E0,1.2134192E0,1.5045646E0,1.15606735E2,8.9682045E1,1.394541E1,2.88688E0,2.444765E1,2.8092432E0,7.0131598E0,4.9862323E0,1.2292696E2,3.5952005E2,6.503356E2,2.5056577E0,6.622503E0,6.699817E1,2.8127937E1,6.903853E1,1.8129358E0,7.0093017E0,5.6053934E0,1.1526109E1,1.3491451E1,3.266123E1,2.3047345E0,2.3739742E1,6.738384E0,1.973164E0,4.864342E1,2.8115173E1,8.021075E1,1.4192909E1,1.1766505E0,1.650042E0,1.0793334E0,1.0642447E1,3.5100954E0,1.110382E0,1.1188543E0,1.5483257E0,4.3819427E1,3.2971042E2,3.8312305E2,3.4554024E1,2.3255972E1,3.541439E1,1.2311047E2,8.417949E0,8.925865E0,1.1941205E1,1.6689332E0,8.281898E0,1.5614551E0,3.8207145E0,1.5591013E0,3.1527233E0,1.1245401E2,5.9832206E0,8.369883E1,2.9675174E0,1.0977893E1,1.3414242E0,1.5454557E0,8.435355E0,1.6012295E1,1.3205249E0,1.4887183E0,1.2848476E0,5.728312E0,1.8495753E0,3.1366568E0,1.4585131E1,1.08341835E2,2.0359482E2,1.5592523E2,3.80108E2,2.702276E2,1.2053183E0,1.3003392E0,1.572421E0,5.0500817E0,6.537294E1,1.625232E0,6.135238E0,2.1992699E1,8.510741E0,6.052779E1,4.1057568E0,2.903545E0,3.7280262E0,1.8773674E0,7.7312584E0,3.7948499E0,1.1429238E1,2.0622134E0,1.2765865E1,1.9895365E1,5.7355814E0,1.800416E1,1.2395483E0,5.4988356E0,3.5705563E1,1.2937856E1,2.2499094E1,5.61608E0,7.346116E1,6.7495813E0,3.1492798E0,1.1043629E1,3.6390293E0,7.003418E0,1.9709787E0,1.5391166E0,8.387874E0,3.5431553E1,3.4512928E1,2.9519748E2,6.742802E1,3.1569504E2,3.0961985E1,3.5920377E0,1.4242056E1,9.013916E0,2.598966E1,9.424729E0,2.3155807E1,9.9954666E1,1.133813E0,7.2841363E0,6.683445E0,2.2424202E0,8.881777E0,3.0594275E0],"tree_param":{"num_deleted":"0","num_feature":"31","num_nodes":"195","size_leaf_vector":"1"}},{"base_weights":[-8.9745976E-2,-2.0414212E-1,4.7202144E-2,-3.8718325E-1,-1.4130004E-1,1.24454126E-1,-2.6092663E-1,-1.1163381E-1,-4.9164286E-1,-1.15908705E-1,-6.237048E-1,3.0859202E-1,-8.260177E-2,-1.7119277E-1,-1.1129795E0,6.76536E-2,-7.615427E-1,-6.992799E-1,-3.930384E-1,-5.007291E-1,-8.9986786E-2,2.6745662E-1,-6.947837E-1,2.712042E-1,1.4209919E0,-3.1550673E-1,3.3685535E-2,2.1259081E-1,-3.2550588E-1,-4.4091412E-1,-2.3638533E-1,3.6665562E-1,-4.0107247E-1,-1.4759329E-1,-9.7428626E-1,4.791138E-1,-7.381291E-1,-4.2970526E-1,3.1580055E-1,-6.870676E-1,-1.0398608E-1,1.5921658E-1,-1.3400827E-1,7.855673E-1,-7.7768725E-1,3.2690686E-1,-2.6033896E-1,8.548181E-1,4.0531728E-1,8.5907936E-1,-3.5553652E-1,1.07649945E-1,-3.2384068E-1,5.332108E-1,-3.2990238E-1,3.0223247E-1,-3.6076027E-1,3.8121004E-2,-1.592384E-1,4.142789E-2,1.1399553E0,-6.189559E-1,4.622673E-1,-8.6341435E-1,2.8527528E-1,-2.3570037E-1,-4.1580734E-1,2.373817E-1,-1.2794882E-1,9.192827E-2,-7.753509E-1,-5.164432E-1,-6.887237E-2,1.0811627E0,-1.2667973E-1,2.2433907E-1,-7.743685E-1,-5.1277375E-1,5.3956866E-1,4.3039766E-1,-3.329011E-1,-6.299541E-1,-9.725979E-2,3.9727268E-1,-1.422829E-1,1.5988785E-1,-8.4600234E-1,2.0459941E-1,5.3935003E-1,1.1114815E0,-4.036042E-1,3.541292E-1,2.3998012E-1,-1.6804741E-1,3.9672232E-1,-3.8865766E-1,7.3505276E-1,4.4334674E-1,1.173601E-2,4.9727237E-1,-6.39773E-1,-7.90375E-1,8.1976366E-1,-6.4113986E-1,1.1889335E0,-8.377733E-1,-1.9334717E-1,8.196183E-2,-1.3468796E-1,-1.3452248E-1,3.7083763E-1,7.7863954E-2,-1.7185241E-1,-7.294427E-2,2.7420834E-1,-1.9695713E-1,-3.175871E-2,6.494125E-2,-1.493536E-1,-1.6732864E-1,2.3417059E-1,-1.6107075E-1,1.961663E-2,-7.421488E-2,-1.7963E-1,-1.5488756E-1,9.579905E-2,1.6261337E-2,3.2143497E-1,-1.2129571E-1,1.2882377E-1,-1.8040578E-1,3.3569056E-1,3.7108492E-2,-1.6786736E-1,-1.4501403E-1,1.551671E-1,2.4965706E-1,-3.3592254E-2,1.1593538E-1,-1.6821103E-1,-1.4379983E-1,1.1373689E-1,-2.532934E-2,-2.1627168E-1,-2.5834743E-2,9.878902E-2,-1.393838E-1,1.4840731E-1,-1.0385779E-1,-2.1110605E-1,8.588907E-2,1.153932E-2,1.2563597E-1,-1.6698213E-1,3.221021E-1,2.362965E-2,-1.6255315E-1,2.4118142E-2,3.093432E-1,-6.651295E-2,-2.7518103E-2,-1.09024204E-1,3.8002074E-1,-1.645894E-1,4.6469476E-2,3.3981645E-1,-1.1151979E-1,1.6457165E-2,-1.0284772E-1,2.1271276E-1,-1.8506095E-1,-1.7678682E-2,5.565373E-2,-1.9789518E-1,7.0431195E-2,3.4428373E-1,8.465164E-2,-1.8326144E-1,-8.3182596E-2,4.2250925E-1,-1.898829E-1,-4.176865E-2,-8.212251E-3,-1.5456153E-1],"categories":[],"categories_nodes":[],"categories_segments":[],"categories_sizes":[],"default_left":[0,0,0,0,0,0,0,0,0,0,0,0,0,0,0,0,0,0,0,0,0,0,0,0,0,0,0,0,0,0,0,0,0,0,0,0,0,0,0,0,0,0,0,0,0,0,0,0,0,0,0,0,0,0,0,0,0,0,0,0,0,0,0,0,0,0,0,0,0,0,0,0,0,0,0,0,0,0,0,0,0,0,0,0,0,0,0,0,0,0,0,0,0,0,0,0,0,0,0,0,0,0,0,0,0,0,0,0,0,0,0,0,0,0,0,0,0,0,0,0,0,0,0,0,0,0,0,0,0,0,0,0,0,0,0,0,0,0,0,0,0,0,0,0,0,0,0,0,0,0,0,0,0,0,0,0,0,0,0,0,0,0,0,0,0,0,0,0,0,0,0,0,0,0,0,0,0,0,0,0,0,0,0,0,0],"id":3,"left_children":[1,3,5,7,9,11,13,15,17,19,21,23,25,27,29,31,33,35,37,39,41,-1,43,45,47,49,51,53,55,57,-1,59,61,63,65,67,69,71,73,75,77,79,81,83,85,87,89,91,-1,93,95,97,99,101,103,-1,105,-1,-1,107,109,111,113,115,-1,-1,117,-1,-1,119,121,123,125,127,129,131,133,135,137,139,141,143,145,-1,-1,147,149,151,153,155,157,-1,159,-1,-1,161,163,165,167,169,171,173,175,177,179,181,183,-1,-1,-1,-1,-1,-1,-1,-1,-1,-1,-1,-1,-1,-1,-1,-1,-1,-1,-1,-1,-1,-1,-1,-1,-1,-1,-1,-1,-1,-1,-1,-1,-1,-1,-1,-1,-1,-1,-1,-1,-1,-1,-1,-1,-1,-1,-1,-1,-1,-1,-1,-1,-1,-1,-1,-1,-1,-1,-1,-1,-1,-1,-1,-1,-1,-1,-1,-1,-1,-1,-1,-1,-1,-1,-1,-1,-1,-1],"loss_changes":[4.4390045E1,1.7702026E1,3.0742609E1,1.1284779E1,1.4023048E1,3.93803E1,1.9607613E1,1.2820817E1,5.567848E0,1.0872195E1,8.917591E0,2.234578E1,1.3191187E1,1.401328E1,6.1367416E-1,1.2313736E1,2.9617558E0,4.5013466E0,5.223959E0,5.0185566E0,1.1283234E1,0E0,7.4794006E0,1.5777969E1,4.2803726E0,7.9300346E0,8.642318E0,1.2025449E1,1.1444279E1,1.020879E0,0E0,1.3414028E1,6.735878E0,9.453253E0,1.5034904E0,3.5294611E0,2.7933426E0,5.8035316E0,3.5930135E0,3.8870277E0,6.375126E0,2.0771946E1,1.5849457E1,7.6425934E0,3.5619812E0,1.2366444E1,1.043857E1,5.652289E0,0E0,1.243874E1,5.975727E0,8.702757E0,1.4856997E1,1.7033413E1,1.3017366E1,0E0,1.3091425E1,0E0,0E0,1.047151E1,2.1712831E1,7.0716963E0,6.123078E0,3.2587147E-1,0E0,0E0,1.7681986E0,0E0,0E0,5.6634984E0,2.2914658E0,8.004143E0,1.4793257E1,1.8907261E0,3.1132169E0,9.465695E0,2.8257904E0,4.580986E0,4.969379E0,1.9485765E1,1.9721834E1,1.3504423E1,1.5421357E1,0E0,0E0,2.7489812E0,2.8764153E0,1.009414E1,2.1867252E1,2.324367E0,1.0126643E1,0E0,6.211106E0,0E0,0E0,5.9563255E0,1.0619248E1,1.5522168E1,8.536159E0,9.7891245E0,6.358881E0,2.0195417E0,1.4573919E1,6.8798056E0,7.9331484E0,2.8079205E0,1.0923466E1,0E0,0E0,0E0,0E0,0E0,0E0,0E0,0E0,0E0,0E0,0E0,0E0,0E0,0E0,0E0,0E0,0E0,0E0,0E0,0E0,0E0,0E0,0E0,0E0,0E0,0E0,0E0,0E0,0E0,0E0,0E0,0E0,0E0,0E0,0E0,0E0,0E0,0E0,0E0,0E0,0E0,0E0,0E0,0E0,0E0,0E0,0E0,0E0,0E0,0E0,0E0,0E0,0E0,0E0,0E0,0E0,0E0,0E0,0E0,0E0,0E0,0E0,0E0,0E0,0E0,0E0,0E0,0E0,0E0,0E0,0E0,0E0,0E0,0E0,0E0,0E0,0E0,0E0],"parents":[2147483647,0,0,1,1,2,2,3,3,4,4,5,5,6,6,7,7,8,8,9,9,10,10,11,11,12,12,13,13,14,14,15,15,16,16,17,17,18,18,19,19,20,20,22,22,23,23,24,24,25,25,26,26,27,27,28,28,29,29,31,31,32,32,33,33,34,34,35,35,36,36,37,37,38,38,39,39,40,40,41,41,42,42,43,43,44,44,45,45,46,46,47,47,49,49,50,50,51,51,52,52,53,53,54,54,56,56,59,59,60,60,61,61,62,62,63,63,66,66,69,69,70,70,71,71,72,72,73,73,74,74,75,75,76,76,77,77,78,78,79,79,80,80,81,81,82,82,85,85,86,86,87,87,88,88,89,89,90,90,92,92,95,95,96,96,97,97,98,98,99,99,100,100,101,101,102,102,103,103,104,104,105,105,106,106],"right_children":[2,4,6,8,10,12,14,16,18,20,22,24,26,28,30,32,34,36,38,40,42,-1,44,46,48,50,52,54,56,58,-1,60,62,64,66,68,70,72,74,76,78,80,82,84,86,88,90,92,-1,94,96,98,100,102,104,-1,106,-1,-1,108,110,112,114,116,-1,-1,118,-1,-1,120,122,124,126,128,130,132,134,136,138,140,142,144,146,-1,-1,148,150,152,154,156,158,-1,160,-1,-1,162,164,166,168,170,172,174,176,178,180,182,184,-1,-1,-1,-1,-1,-1,-1,-1,-1,-1,-1,-1,-1,-1,-1,-1,-1,-1,-1,-1,-1,-1,-1,-1,-1,-1,-1,-1,-1,-1,-1,-1,-1,-1,-1,-1,-1,-1,-1,-1,-1,-1,-1,-1,-1,-1,-1,-1,-1,-1,-1,-1,-1,-1,-1,-1,-1,-1,-1,-1,-1,-1,-1,-1,-1,-1,-1,-1,-1,-1,-1,-1,-1,-1,-1,-1,-1,-1],"split_conditions":[6.1E1,4.8E1,6.5E-1,1E0,8E1,4E0,8.8E1,4.5E1,6.5E1,2.3E1,4.9E1,1E0,6.7E1,7E1,6.5E1,4.6666667E-1,6.3E1,3E1,1.4E1,7E0,6E1,2.6745662E-1,3.5714287E-1,8.3E1,7.4E1,3.9E1,8.6E1,8E0,4.6E1,7.631579E-1,-2.3638533E-1,8E1,7.1428573E-1,5.2E1,5E-1,3.5E1,1.8E1,7.4E1,5.6E1,4.2E1,7E1,4.852941E-1,5.9E1,5.2E1,3.4E1,7.6E1,3.5714287E-1,4.6E1,4.0531728E-1,6.3E1,6.25E-1,6.6E1,6.5E1,5.8E1,7.9E1,3.0223247E-1,7E1,3.8121004E-2,-1.592384E-1,7.3E1,2.7E1,1.2E1,3.3E1,3.8E1,2.8527528E-1,-2.3570037E-1,7.6E1,2.373817E-1,-1.2794882E-1,5.2E1,1.9E1,4.4E1,4.5E1,3.9E1,7.6E1,1.5E1,4E1,7.6E1,7.3E1,7.1E1,5.6E1,4.2E1,8.6E1,3.9727268E-1,-1.422829E-1,8.7E1,5.735294E-1,1E0,8.3E1,7.9E1,5.735294E-1,3.541292E-1,7.4E1,-1.6804741E-1,3.9672232E-1,6.9E1,6.8E1,7.5E1,6.7E1,6.7E1,7.5E1,6.7105263E-1,8E1,6.8333334E-1,7.2E1,8.1E1,7.8E1,8.196183E-2,-1.3468796E-1,-1.3452248E-1,3.7083763E-1,7.7863954E-2,-1.7185241E-1,-7.294427E-2,2.7420834E-1,-1.9695713E-1,-3.175871E-2,6.494125E-2,-1.493536E-1,-1.6732864E-1,2.3417059E-1,-1.6107075E-1,1.961663E-2,-7.421488E-2,-1.7963E-1,-1.5488756E-1,9.579905E-2,1.6261337E-2,3.2143497E-1,-1.2129571E-1,1.2882377E-1,-1.8040578E-1,3.3569056E-1,3.7108492E-2,-1.6786736E-1,-1.4501403E-1,1.551671E-1,2.4965706E-1,-3.3592254E-2,1.1593538E-1,-1.6821103E-1,-1.4379983E-1,1.1373689E-1,-2.532934E-2,-2.1627168E-1,-2.5834743E-2,9.878902E-2,-1.393838E-1,1.4840731E-1,-1.0385779E-1,-2.1110605E-1,8.588907E-2,1.153932E-2,1.2563597E-1,-1.6698213E-1,3.221021E-1,2.362965E-2,-1.6255315E-1,2.4118142E-2,3.093432E-1,-6.651295E-2,-2.7518103E-2,-1.09024204E-1,3.8002074E-1,-1.645894E-1,4.6469476E-2,3.3981645E-1,-1.1151979E-1,1.6457165E-2,-1.0284772E-1,2.1271276E-1,-1.8506095E-1,-1.7678682E-2,5.565373E-2,-1.9789518E-1,7.0431195E-2,3.4428373E-1,8.465164E-2,-1.8326144E-1,-8.3182596E-2,4.2250925E-1,-1.898829E-1,-4.176865E-2,-8.212251E-3,-1.5456153E-1],"split_indices":[3,12,0,13,5,13,8,4,9,3,9,15,3,5,3,0,5,6,13,13,7,0,0,4,3,9,6,13,6,0,0,9,0,4,0,8,5,8,6,8,8,0,6,6,3,6,0,6,0,8,0,8,5,9,8,0,8,0,0,9,4,3,12,3,0,0,9,0,0,9,13,4,4,5,6,3,7,9,8,12,6,3,9,0,0,8,0,28,9,12,0,0,9,0,0,4,9,5,4,8,5,0,6,0,4,7,9,0,0,0,0,0,0,0,0,0,0,0,0,0,0,0,0,0,0,0,0,0,0,0,0,0,0,0,0,0,0,0,0,0,0,0,0,0,0,0,0,0,0,0,0,0,0,0,0,0,0,0,0,0,0,0,0,0,0,0,0,0,0,0,0,0,0,0,0,0,0,0,0,0,0,0,0,0,0],"split_type":[0,0,0,0,0,0,0,0,0,0,0,0,0,0,0,0,0,0,0,0,0,0,0,0,0,0,0,0,0,0,0,0,0,0,0,0,0,0,0,0,0,0,0,0,0,0,0,0,0,0,0,0,0,0,0,0,0,0,0,0,0,0,0,0,0,0,0,0,0,0,0,0,0,0,0,0,0,0,0,0,0,0,0,0,0,0,0,0,0,0,0,0,0,0,0,0,0,0,0,0,0,0,0,0,0,0,0,0,0,0,0,0,0,0,0,0,0,0,0,0,0,0,0,0,0,0,0,0,0,0,0,0,0,0,0,0,0,0,0,0,0,0,0,0,0,0,0,0,0,0,0,0,0,0,0,0,0,0,0,0,0,0,0,0,0,0,0,0,0,0,0,0,0,0,0,0,0,0,0,0,0,0,0,0,0],"sum_hessian":[2.8318523E3,1.5427034E3,1.2891488E3,3.9296033E2,1.149743E3,1.0312075E3,2.5794135E2,1.08588425E2,2.8437192E2,1.0934307E3,5.6312366E1,5.455507E2,4.8565677E2,2.3445107E2,2.3490274E1,8.581181E1,2.2776611E1,8.96014E1,1.9477051E2,6.785035E1,1.0255803E3,1.3466161E0,5.496575E1,5.2901434E2,1.6536394E1,1.6116193E2,3.2449484E2,6.7126595E1,1.6732448E2,2.873696E0,2.061658E1,5.25242E1,3.3287613E1,6.2972765E0,1.6479334E1,2.498002E0,8.71034E1,1.8556535E2,9.205151E0,4.5669136E1,2.2181213E1,1.5357626E2,8.72004E2,2.465493E0,5.250026E1,4.7918365E2,4.98307E1,9.792687E0,6.7437057E0,4.6370454E0,1.5652487E2,2.6945032E2,5.5044518E1,4.2201885E1,2.492471E1,2.362819E0,1.6496165E2,1.2014967E0,1.6721992E0,3.771565E1,1.4808553E1,2.6805664E1,6.48195E0,4.638973E0,1.6583034E0,1.1253966E1,5.2253685E0,1.4928174E0,1.0051847E0,3.675222E0,8.342818E1,1.4925566E2,3.63097E1,2.8434303E0,6.3617206E0,3.8549013E0,4.181423E1,1.3689086E1,8.492127E0,9.909529E1,5.448097E1,5.904254E1,8.129615E2,1.1866865E0,1.2788064E0,3.4745216E0,4.9025738E1,3.053507E2,1.7383295E2,4.072899E0,4.57578E1,3.1784263E0,6.614261E0,1.9472723E0,2.6897728E0,1.52536E2,3.988882E0,5.907316E1,2.1037717E2,1.5134842E1,3.990967E1,7.197671E0,3.5004215E1,2.1165403E1,3.7593076E0,4.1814537E1,1.2314712E2,2.5171274E1,1.2544374E1,4.202301E0,1.0606252E1,5.03976E0,2.1765903E1,3.7071204E0,2.7748294E0,3.6181364E0,1.0208367E0,1.6198666E0,3.6055017E0,2.0959287E0,1.5792931E0,8.0732925E1,2.695256E0,1.0951879E2,3.9736866E1,1.5689979E1,2.061972E1,1.3782305E0,1.4651997E0,4.0524035E0,2.3093174E0,2.3862016E0,1.4686997E0,2.5330062E0,3.9281227E1,1.2128292E1,1.5607942E0,3.8606827E0,4.6314445E0,8.917007E1,9.925227E0,3.828723E1,1.6193737E1,2.8521812E1,3.0520727E1,7.72066E2,4.0895504E1,1.3259046E0,2.1486168E0,2.0515162E1,2.8510574E1,1.19904465E2,1.8544624E2,1.6378882E2,1.0044124E1,2.2974107E0,1.7754881E0,2.5389482E1,2.036832E1,1.4967378E0,5.1175237E0,5.9284767E1,9.325123E1,2.1566157E0,1.8322666E0,5.1589653E1,7.483503E0,2.2433758E1,1.8794342E2,5.46506E0,9.669783E0,2.5846771E1,1.40629015E1,1.067956E0,6.129715E0,2.3965843E1,1.103837E1,4.237147E0,1.6928255E1,1.5740194E0,2.1852882E0,3.507824E1,6.7362986E0,9.836661E1,2.4780512E1],"tree_param":{"num_deleted":"0","num_feature":"31","num_nodes":"185","size_leaf_vector":"1"}},{"base_weights":[-6.2992334E-2,-5.6676793E-1,-3.7390903E-2,-2.8414235E-1,-8.1607175E-1,1.3807072E-1,-1.0876188E-1,-6.20187E-1,2.5167614E-1,1.0701763E-2,-9.309695E-1,1.2607386E-2,3.7234625E-1,-2.0707804E-1,5.178872E-2,-7.255168E-1,6.9749874E-1,6.159416E-1,-5.4496706E-1,3.0146465E-1,-3.9109105E-1,-4.8296037E-1,-1.0456356E0,-1.5589812E-1,2.1790938E-1,6.667565E-1,6.687999E-2,-1.2992656E-1,-4.1158795E-1,1.2793224E-1,-2.314659E-1,-8.022193E-1,2.1110664E-1,3.4281173E-1,-1.3997851E-1,1.3451837E0,-1.1171291E-2,2.5337908E-1,-9.0869933E-1,3.0359915E-1,-8.130152E-1,-9.1306937E-1,5.323605E-1,6.6255094E-3,-2.1621041E-1,-2.9402632E-1,5.804331E-2,1.6083986E0,1.4859253E-1,1.2212241E0,4.1657102E-1,-2.9281873E-1,3.765217E-1,-2.7472383E-1,-2.2809137E-2,4.3836534E-1,-4.628491E-1,-3.2506943E-1,2.1646202E-1,-8.046277E-1,-7.5023554E-2,-8.43815E-1,4.1968208E-2,-1.4755973E-1,2.5039124E-1,1.6472458E0,-5.944869E-2,2.7329236E-1,-4.3980885E-1,-1.3263415E-1,2.0245028E-1,-5.029869E-2,-2.051435E-1,-1.3230349E-1,1.9160539E-1,-1.8796316E-1,-2.6256964E-2,-2.1542728E-1,2.9895714E-2,2.9563856E-1,-3.2109758E-1,-2.1069257E-1,-8.451335E-1,-1.1971526E-1,5.287309E-1,-7.709651E-2,4.5706174E-1,1.1588676E0,8.263119E-2,1.3634213E0,-6.8253934E-1,-9.034765E-1,5.5895096E-1,1.2995719E0,-4.2270383E-1,6.1592823E-1,-5.997114E-1,-1.6752078E-1,-7.152538E-1,2.086725E-2,-6.8117356E-1,-7.247265E-1,7.539488E-1,-3.6428925E-1,-7.6165074E-1,-5.404798E-1,2.757925E-1,2.9414192E-1,-1.2899268E-1,-9.64486E-1,2.1334302E-1,2.8434116E-1,-5.281753E-1,3.685364E-2,-1.7661962E-1,1.2940142E-1,3.9395514E-1,1.1957186E-1,-1.5558046E-1,-1.4067878E-1,4.53556E-2,-9.8433085E-2,2.138446E-2,-4.1926675E-3,-2.1117797E-1,7.647609E-2,-8.563669E-2,3.7839362E-1,1.5867231E-2,-1.8314937E-1,2.4377394E-1,-1.4454393E-1,3.1916615E-1,2.0022485E-3,2.0831166E-1,-1.6131936E-1,2.9676792E-1,-1.6171347E-1,-4.0549077E-2,4.9575992E-2,-2.3424664E-1,2.9017136E-1,6.2189322E-2,1.4018725E-2,4.1654643E-1,-1.3070823E-1,1.1009569E-2,-4.2952508E-2,1.6364191E-1,2.909112E-1,-2.3331957E-1,-4.7351114E-2,1.1666202E-1,1.1188215E-1,-1.5791534E-1,-1.1047423E-2,7.4641086E-2,-1.7496605E-1,3.4910146E-2,-2.6973555E-2,-1.7157976E-1,2.493022E-1,-1.6810728E-2,-7.774433E-2,1.8650782E-1,6.359584E-2,-1.6216986E-1,9.4161645E-2,-1.24023914E-1,1.905118E-1,-4.114143E-2,8.776641E-2,2.0703156E-2,-8.5275315E-2,1.3603553E-1,1.7029628E-1,-2.1237457E-1,2.2019818E-1,-1.6907065E-1,2.2233884E-1,-5.7624094E-3,-2.1725559E-1,-1.3851361E-2],"categories":[],"categories_nodes":[],"categories_segments":[],"categories_sizes":[],"default_left":[0,0,0,0,0,0,0,0,0,0,0,0,0,0,0,0,0,0,0,0,0,0,0,0,0,0,0,0,0,0,0,0,0,0,0,0,0,0,0,0,0,0,0,0,0,0,0,0,0,0,0,0,0,0,0,0,0,0,0,0,0,0,0,0,0,0,0,0,0,0,0,0,0,0,0,0,0,0,0,0,0,0,0,0,0,0,0,0,0,0,0,0,0,0,0,0,0,0,0,0,0,0,0,0,0,0,0,0,0,0,0,0,0,0,0,0,0,0,0,0,0,0,0,0,0,0,0,0,0,0,0,0,0,0,0,0,0,0,0,0,0,0,0,0,0,0,0,0,0,0,0,0,0,0,0,0,0,0,0,0,0,0,0,0,0,0,0,0,0,0,0,0,0,0,0,0,0,0,0,0,0,0,0],"id":4,"left_children":[1,3,5,7,9,11,13,15,17,19,21,23,25,27,29,31,33,35,37,-1,39,41,43,45,47,49,51,53,55,57,59,61,63,-1,-1,65,67,69,71,73,75,77,79,-1,-1,81,83,85,87,89,91,93,95,97,99,101,103,105,107,109,111,113,-1,-1,-1,115,-1,-1,117,-1,-1,-1,-1,-1,-1,-1,-1,-1,-1,-1,119,121,123,125,127,129,-1,131,133,135,137,139,141,143,145,147,149,151,153,155,157,159,161,163,165,167,169,171,173,175,177,179,181,-1,-1,-1,-1,-1,-1,-1,-1,-1,-1,-1,-1,-1,-1,-1,-1,-1,-1,-1,-1,-1,-1,-1,-1,-1,-1,-1,-1,-1,-1,-1,-1,-1,-1,-1,-1,-1,-1,-1,-1,-1,-1,-1,-1,-1,-1,-1,-1,-1,-1,-1,-1,-1,-1,-1,-1,-1,-1,-1,-1,-1,-1,-1,-1,-1,-1,-1,-1,-1,-1],"loss_changes":[3.6258053E1,9.348236E0,3.3550636E1,1.1906466E1,6.8217773E0,2.2767902E1,3.0067793E1,6.1124506E0,7.8411636E0,6.4452705E0,2.7298355E0,1.7524609E1,2.4252712E1,1.8583591E1,1.5644846E1,2.891756E0,6.1712165E0,8.346432E0,2.74094E0,0E0,2.7297306E0,6.9014997E0,1.91856E0,8.240089E0,2.1768208E1,1.8560337E1,1.5002374E1,1.3318696E1,1.4279556E1,2.2980032E1,1.3725494E1,1.6603527E0,4.538612E0,0E0,0E0,4.672557E0,6.970553E0,3.097497E0,2.1561241E-1,3.1152759E0,3.5569E-1,2.024166E0,4.513316E0,0E0,0E0,7.595155E0,9.267388E0,1.2429796E1,1.447072E1,1.2360859E1,1.8593407E1,1.3458893E1,1.726506E1,1.712771E1,1.4244821E1,7.4802737E0,8.710449E0,1.22883E1,1.2877514E1,5.553665E0,1.999828E1,1.5375824E0,0E0,0E0,0E0,1.0723362E0,0E0,0E0,3.6167212E0,0E0,0E0,0E0,0E0,0E0,0E0,0E0,0E0,0E0,0E0,0E0,8.8244164E-1,1.3315669E1,3.7818146E0,1.2657271E1,1.8437546E1,5.5122647E0,0E0,1.2105009E1,1.4353462E1,1.1550545E1,5.380869E-2,3.2967472E0,1.890118E1,4.6227617E0,6.483593E0,1.0013681E1,1.8866375E1,1.5475219E1,7.1844673E0,1.2491309E1,5.2598696E0,2.4105144E-1,6.440385E0,7.6946945E0,4.2299843E0,5.879423E0,8.476938E0,1.0737183E1,2.1594048E1,5.959326E0,5.891836E0,1.781206E1,1.3821189E1,0E0,0E0,0E0,0E0,0E0,0E0,0E0,0E0,0E0,0E0,0E0,0E0,0E0,0E0,0E0,0E0,0E0,0E0,0E0,0E0,0E0,0E0,0E0,0E0,0E0,0E0,0E0,0E0,0E0,0E0,0E0,0E0,0E0,0E0,0E0,0E0,0E0,0E0,0E0,0E0,0E0,0E0,0E0,0E0,0E0,0E0,0E0,0E0,0E0,0E0,0E0,0E0,0E0,0E0,0E0,0E0,0E0,0E0,0E0,0E0,0E0,0E0,0E0,0E0,0E0,0E0,0E0,0E0,0E0,0E0],"parents":[2147483647,0,0,1,1,2,2,3,3,4,4,5,5,6,6,7,7,8,8,9,9,10,10,11,11,12,12,13,13,14,14,15,15,16,16,17,17,18,18,20,20,21,21,22,22,23,23,24,24,25,25,26,26,27,27,28,28,29,29,30,30,31,31,32,32,35,35,36,36,37,37,38,38,39,39,40,40,41,41,42,42,45,45,46,46,47,47,48,48,49,49,50,50,51,51,52,52,53,53,54,54,55,55,56,56,57,57,58,58,59,59,60,60,61,61,65,65,68,68,80,80,81,81,82,82,83,83,84,84,85,85,87,87,88,88,89,89,90,90,91,91,92,92,93,93,94,94,95,95,96,96,97,97,98,98,99,99,100,100,101,101,102,102,103,103,104,104,105,105,106,106,107,107,108,108,109,109,110,110,111,111,112,112],"right_children":[2,4,6,8,10,12,14,16,18,20,22,24,26,28,30,32,34,36,38,-1,40,42,44,46,48,50,52,54,56,58,60,62,64,-1,-1,66,68,70,72,74,76,78,80,-1,-1,82,84,86,88,90,92,94,96,98,100,102,104,106,108,110,112,114,-1,-1,-1,116,-1,-1,118,-1,-1,-1,-1,-1,-1,-1,-1,-1,-1,-1,120,122,124,126,128,130,-1,132,134,136,138,140,142,144,146,148,150,152,154,156,158,160,162,164,166,168,170,172,174,176,178,180,182,-1,-1,-1,-1,-1,-1,-1,-1,-1,-1,-1,-1,-1,-1,-1,-1,-1,-1,-1,-1,-1,-1,-1,-1,-1,-1,-1,-1,-1,-1,-1,-1,-1,-1,-1,-1,-1,-1,-1,-1,-1,-1,-1,-1,-1,-1,-1,-1,-1,-1,-1,-1,-1,-1,-1,-1,-1,-1,-1,-1,-1,-1,-1,-1,-1,-1,-1,-1,-1,-1],"split_conditions":[5.6E1,6.3E1,7.3E1,4.7E1,5.2E1,6.9E1,6.8E1,8.2E1,6.5E1,6.4E1,6E0,5.4E1,4.6052632E-1,7.5E1,8E1,6.8E1,2.6E1,5.3E1,2.9E1,3.0146465E-1,4E-1,6.3E1,1.9E1,7.2E1,4.5E1,5.6E1,5.5E1,6.9E1,3.5714287E-1,6.8E1,6.3E1,9.4E1,5.6E1,3.4281173E-1,-1.3997851E-1,7.5E1,1E0,5.3E1,5E1,6.9E1,6.4E1,8.2E1,6.8E1,6.6255094E-3,-2.1621041E-1,7.6E1,5.8E1,3.6842105E-1,4.6E1,7.5E1,5.3E1,4E1,7.3E1,6.8E1,8.8E1,3.8E1,8E1,7.4E1,8E1,8.6E1,7.6E1,2.2E1,4.1968208E-2,-1.4755973E-1,2.5039124E-1,5.5E1,-5.944869E-2,2.7329236E-1,3.4210527E-1,-1.3263415E-1,2.0245028E-1,-5.029869E-2,-2.051435E-1,-1.3230349E-1,1.9160539E-1,-1.8796316E-1,-2.6256964E-2,-2.1542728E-1,2.9895714E-2,2.9563856E-1,5E0,6.7E1,6.5E1,3.3E1,2E0,6.5E1,4.5706174E-1,6.3E1,8.1E1,1.2E1,3.5714287E-1,7E1,6.3E1,4.3E1,1E0,5.131579E-1,6.3E1,7.2E1,5.3E1,7.6E1,7.1E1,7.6E1,7.4E1,8.214286E-1,3.4E1,5.7E1,3.8235295E-1,7.7E1,8E1,6.9E1,7E-1,7.4E1,2E0,3.685364E-2,-1.7661962E-1,1.2940142E-1,3.9395514E-1,1.1957186E-1,-1.5558046E-1,-1.4067878E-1,4.53556E-2,-9.8433085E-2,2.138446E-2,-4.1926675E-3,-2.1117797E-1,7.647609E-2,-8.563669E-2,3.7839362E-1,1.5867231E-2,-1.8314937E-1,2.4377394E-1,-1.4454393E-1,3.1916615E-1,2.0022485E-3,2.0831166E-1,-1.6131936E-1,2.9676792E-1,-1.6171347E-1,-4.0549077E-2,4.9575992E-2,-2.3424664E-1,2.9017136E-1,6.2189322E-2,1.4018725E-2,4.1654643E-1,-1.3070823E-1,1.1009569E-2,-4.2952508E-2,1.6364191E-1,2.909112E-1,-2.3331957E-1,-4.7351114E-2,1.1666202E-1,1.1188215E-1,-1.5791534E-1,-1.1047423E-2,7.4641086E-2,-1.7496605E-1,3.4910146E-2,-2.6973555E-2,-1.7157976E-1,2.493022E-1,-1.6810728E-2,-7.774433E-2,1.8650782E-1,6.359584E-2,-1.6216986E-1,9.4161645E-2,-1.24023914E-1,1.905118E-1,-4.114143E-2,8.776641E-2,2.0703156E-2,-8.5275315E-2,1.3603553E-1,1.7029628E-1,-2.1237457E-1,2.2019818E-1,-1.6907065E-1,2.2233884E-1,-5.7624094E-3,-2.1725559E-1,-1.3851361E-2],"split_indices":[11,6,2,12,8,1,3,2,8,7,13,3,0,11,11,8,12,11,3,0,0,3,3,9,9,10,3,7,0,11,9,9,6,0,0,9,13,12,6,7,1,9,2,0,0,8,4,0,6,7,6,7,12,4,6,3,5,10,8,1,9,9,0,0,0,9,0,0,0,0,0,0,0,0,0,0,0,0,0,0,13,8,6,10,13,11,0,3,8,3,0,2,7,4,13,0,8,12,10,4,12,11,6,0,3,5,0,4,5,4,0,6,13,0,0,0,0,0,0,0,0,0,0,0,0,0,0,0,0,0,0,0,0,0,0,0,0,0,0,0,0,0,0,0,0,0,0,0,0,0,0,0,0,0,0,0,0,0,0,0,0,0,0,0,0,0,0,0,0,0,0,0,0,0,0,0,0,0,0,0,0,0,0],"split_type":[0,0,0,0,0,0,0,0,0,0,0,0,0,0,0,0,0,0,0,0,0,0,0,0,0,0,0,0,0,0,0,0,0,0,0,0,0,0,0,0,0,0,0,0,0,0,0,0,0,0,0,0,0,0,0,0,0,0,0,0,0,0,0,0,0,0,0,0,0,0,0,0,0,0,0,0,0,0,0,0,0,0,0,0,0,0,0,0,0,0,0,0,0,0,0,0,0,0,0,0,0,0,0,0,0,0,0,0,0,0,0,0,0,0,0,0,0,0,0,0,0,0,0,0,0,0,0,0,0,0,0,0,0,0,0,0,0,0,0,0,0,0,0,0,0,0,0,0,0,0,0,0,0,0,0,0,0,0,0,0,0,0,0,0,0,0,0,0,0,0,0,0,0,0,0,0,0,0,0,0,0,0,0],"sum_hessian":[2.8119167E3,1.3496605E2,2.6769507E3,6.425854E1,7.070752E1,7.737628E2,1.9031879E3,3.939442E1,2.4864115E1,8.738003E0,6.196952E1,5.0458984E2,2.6917294E2,1.180188E3,7.2299994E2,3.689463E1,2.4997878E0,1.7218004E1,7.6461105E0,1.2670238E0,7.4709787E0,1.36907215E1,4.8278797E1,2.7726224E2,2.273276E2,1.3646469E2,1.3270825E2,8.5810333E2,3.2208466E2,5.702545E2,1.5274548E2,3.4234573E1,2.6600575E0,1.3158984E0,1.1838894E0,7.431359E0,9.786646E0,2.488206E0,5.157904E0,2.9289536E0,4.542025E0,9.687586E0,4.003135E0,1.5366964E0,4.6742104E1,1.6825592E2,1.0900632E2,9.740029E0,2.1758759E2,4.1223297E1,9.5241394E1,6.141693E1,7.129132E1,3.642114E2,4.938919E2,1.7890661E1,3.04194E2,9.2788635E1,4.7746585E2,3.1863409E1,1.20882065E2,3.304275E1,1.1918204E0,1.5437936E0,1.1162641E0,6.274474E0,1.1568848E0,1.8032181E0,7.9834275E0,1.1841388E0,1.3040673E0,1.2555538E0,3.9023504E0,1.1791582E0,1.7497956E0,3.5105045E0,1.0315208E0,8.379921E0,1.3076653E0,1.5515969E0,2.4515383E0,1.4735626E2,2.0899652E1,7.9665665E1,2.9340652E1,3.0447516E0,6.695277E0,1.2320211E1,2.0526736E2,3.862232E1,2.6009772E0,8.75214E0,8.648926E1,3.952595E0,5.7464336E1,5.754769E1,1.374363E1,2.9403757E2,7.0173836E1,4.6407324E2,2.9818659E1,3.541585E0,1.4349077E1,2.3041174E2,7.378224E1,6.837613E1,2.4412502E1,3.8993298E2,8.753287E1,2.7584227E1,4.2791834E0,6.7625374E1,5.325669E1,1.0802606E0,3.1962492E1,2.2628615E0,4.0116124E0,1.7731118E0,6.2103157E0,1.2767744E0,1.1747639E0,7.783166E1,6.952461E1,4.479985E0,1.6419668E1,3.022638E1,4.9439285E1,6.478404E0,2.286225E1,2.0266473E0,1.0181044E0,2.1986682E0,1.0121544E1,1.9175604E2,1.3511327E1,1.7309592E0,3.689136E1,1.5172112E0,1.083766E0,1.6653504E0,7.08679E0,1.7761805E1,6.872745E1,1.9619864E0,1.9906086E0,3.8496075E1,1.8968262E1,1.1257171E1,4.629052E1,2.633729E0,1.1109901E1,2.6984006E2,2.4197517E1,3.5066533E0,6.666718E1,3.8233322E2,8.174001E1,2.4297606E1,5.5210543E0,1.0230283E0,2.5185568E0,8.730168E0,5.6189084E0,2.2683833E2,3.5734067E0,2.9776E0,7.080464E1,4.63302E0,6.374311E1,9.741761E0,1.4670741E1,2.2093533E2,1.6899767E2,6.4354546E1,2.3178324E1,1.0098741E0,2.6574352E1,2.3058927E0,1.9732907E0,1.7867996E1,4.975738E1,2.3414577E1,2.9842113E1],"tree_param":{"num_deleted":"0","num_feature":"31","num_nodes":"183","size_leaf_vector":"1"}},{"base_weights":[-5.418591E-2,-3.4747532E-1,-2.8497284E-2,2.3087022E-1,-4.5664832E-1,9.200628E-3,-2.4732426E-1,-1.871612E-1,7.6245016E-1,-3.8715776E-2,-5.6268597E-1,-4.424891E-1,2.6974697E-2,5.6540585E-1,-2.9472148E-1,-7.088509E-1,3.5937402E-1,1.3934011E0,-8.488781E-2,4.7268617E-1,-4.253491E-1,-4.1687253E-1,-7.9834E-1,2.1356507E-1,-6.0817343E-1,9.712383E-2,-8.351969E-2,-6.1389947E-1,1.1815557E0,-4.1556662E-1,1.270358E-1,-9.747145E-1,1.7135623E-1,-5.304118E-1,9.5730376E-1,3.357025E-1,2.170838E0,3.947684E-1,-1.7063902E-1,-2.7930337E-1,1.621454E0,7.7764696E-1,-6.721172E-1,-5.585856E-1,-7.165452E-2,9.910077E-2,-8.5537773E-1,6.9918823E-1,-3.9179075E-1,-2.1795514E-1,-8.8315684E-1,3.0245984E-1,4.3853987E-2,-1.3072866E-1,3.4328836E-1,4.5720544E-1,-2.2732763E-1,1.4367797E0,-1.5222256E-1,-5.504844E-1,-1.157639E-1,2.1596679E-1,-8.083064E-1,-2.0994535E-1,-6.5266125E-2,1.9516693E-1,-1.3710302E-1,-1.9760117E-1,7.152068E-2,1.519758E0,-1.5001173E-1,9.0770644E-1,-1.4139679E-1,5.5444922E-2,5.117277E-1,-1.2815277E-1,8.2296324E-1,2.8390104E-1,-5.9821635E-1,4.8566896E-2,2.3888457E0,-1.3622935E-1,3.0736306E-1,-1.8426046E-1,-9.3472743E-1,-8.9722145E-1,-1.0658951E-1,-3.9778447E-1,1.1419958E0,-9.4773686E-1,-2.0664951E-1,-7.04484E-2,1.4955995E0,3.77924E-1,-1.6870564E-1,1.7985111E-1,-9.145554E-1,-1.2446495E-1,-9.401984E-1,5.8284354E-1,8.871915E-2,1.3731045E-1,-1.02456145E-1,-1.5798725E-1,6.043777E-1,-9.1535497E-1,5.3538156E-1,-1.21604495E-1,2.4819152E-1,1.9287068E-2,1.6233524E0,1.0202136E-1,-6.021352E-1,2.8082088E-1,-4.6926832E-1,3.5783973E-1,-3.4723666E-1,-2.1253227E-1,7.080954E-2,4.1680494E-1,1.8003216E-1,2.5084648E-1,1.0755661E-2,-7.1125835E-2,3.1140238E-1,-1.4252524E-1,1.8387383E-1,-1.8861309E-1,-1.0498849E-2,-1.2600802E-1,1.2793356E-1,5.6582963E-1,7.715856E-2,-1.5758477E-1,1.5010248E-1,4.067413E-3,-2.1369396E-1,1.3090485E-1,-1.9249316E-1,1.2090959E-1,-8.654308E-2,-1.1121821E-1,2.0231938E-1,-6.9899976E-2,3.263318E-1,-2.0016347E-1,1.8059533E-2,1.8334411E-1,-1.9424675E-1,1.0978343E-1,-1.677122E-1,2.7570194E-2,3.8418207E-1,-1.3266937E-1,2.2040904E-1,-1.8347378E-1,8.9436285E-2,4.28275E-2,-2.168645E-1,-1.39369E-1,9.50416E-2,-1.3045847E-1,-2.1620508E-1,8.409213E-2,1.9477352E-1,-5.6464445E-2,8.3432205E-2,-5.2093018E-2,3.7160493E-2,1.5275942E-1,-2.736034E-2,-4.5070913E-2,5.0796224E-3,3.3202025E-1,-7.1930266E-3,-2.1393836E-1,2.7898643E-2,1.7123441E-1,-5.676443E-2,3.659037E-1,1.030159E-1,-6.274065E-2,3.019912E-1,-1.711869E-1,-9.309564E-2,-1.283092E-2,1.855977E-1,-1.4147007E-1,7.438097E-2,-7.03268E-2,9.704982E-2,-2.0003091E-1,8.299666E-2],"categories":[],"categories_nodes":[],"categories_segments":[],"categories_sizes":[],"default_left":[0,0,0,0,0,0,0,0,0,0,0,0,0,0,0,0,0,0,0,0,0,0,0,0,0,0,0,0,0,0,0,0,0,0,0,0,0,0,0,0,0,0,0,0,0,0,0,0,0,0,0,0,0,0,0,0,0,0,0,0,0,0,0,0,0,0,0,0,0,0,0,0,0,0,0,0,0,0,0,0,0,0,0,0,0,0,0,0,0,0,0,0,0,0,0,0,0,0,0,0,0,0,0,0,0,0,0,0,0,0,0,0,0,0,0,0,0,0,0,0,0,0,0,0,0,0,0,0,0,0,0,0,0,0,0,0,0,0,0,0,0,0,0,0,0,0,0,0,0,0,0,0,0,0,0,0,0,0,0,0,0,0,0,0,0,0,0,0,0,0,0,0,0,0,0,0,0,0,0,0,0,0,0,0,0,0,0,0,0,0,0,0,0],"id":5,"left_children":[1,3,5,7,9,11,13,15,17,19,21,23,25,27,29,31,33,35,37,39,41,43,45,47,49,51,53,55,57,59,61,63,65,67,69,71,73,75,-1,77,79,81,83,85,87,-1,89,91,93,95,97,99,101,103,105,107,-1,109,-1,111,113,115,117,-1,-1,-1,-1,-1,-1,119,-1,121,-1,-1,-1,-1,123,125,127,129,131,-1,-1,133,135,137,139,141,143,145,147,149,151,153,-1,155,157,159,161,163,165,167,169,171,173,175,177,-1,-1,-1,179,181,183,185,187,189,191,-1,-1,-1,-1,-1,-1,-1,-1,-1,-1,-1,-1,-1,-1,-1,-1,-1,-1,-1,-1,-1,-1,-1,-1,-1,-1,-1,-1,-1,-1,-1,-1,-1,-1,-1,-1,-1,-1,-1,-1,-1,-1,-1,-1,-1,-1,-1,-1,-1,-1,-1,-1,-1,-1,-1,-1,-1,-1,-1,-1,-1,-1,-1,-1,-1,-1,-1,-1,-1,-1,-1,-1,-1,-1,-1,-1],"loss_changes":[2.1001448E1,1.4280542E1,2.116419E1,8.212253E0,8.362476E0,1.7588198E1,1.4689936E1,6.279623E0,8.770131E0,7.983701E0,4.8499184E0,9.145727E0,1.6342178E1,1.6070576E1,1.8243177E1,2.775731E0,6.351198E0,6.945944E0,3.2295868E0,1.5501181E1,7.3330016E0,4.620693E0,4.597904E0,5.407861E0,6.9410725E0,1.4091047E1,1.6544502E1,4.945926E0,8.140614E0,1.1166859E1,6.8500967E0,8.11224E-2,3.037839E0,2.408546E0,7.7905645E0,3.7054763E0,3.1066246E0,2.9732995E0,0E0,2.2140357E0,8.379808E0,5.8847528E0,2.3353415E0,1.0219999E1,1.1882603E1,0E0,3.071926E0,6.26508E0,3.2445827E0,8.147932E0,1.5565319E0,1.5856121E1,1.402967E1,1.4884384E1,2.0274712E1,3.514524E0,0E0,3.071598E0,0E0,6.5057945E0,1.23898735E1,6.043049E0,2.4986215E0,0E0,0E0,0E0,0E0,0E0,0E0,6.087017E-2,0E0,1.0436814E0,0E0,0E0,0E0,0E0,4.308728E0,3.690258E0,1.3785572E0,1.7382728E0,3.0624294E0,0E0,0E0,5.1590185E0,1.6155882E0,4.5170937E0,7.219401E0,5.805644E0,5.225259E0,2.705574E0,7.826822E0,3.3459609E0,2.613141E0,3.598206E0,0E0,6.0341067E0,2.2702684E0,1.6549232E0,7.469349E-1,6.8697624E0,1.8617113E1,1.2121488E1,1.2008303E1,8.807425E0,1.8039413E1,1.9732866E0,1.9065788E1,0E0,0E0,0E0,1.632349E0,9.183645E0,5.752083E0,9.399021E0,9.596258E0,5.5636845E0,8.085345E0,0E0,0E0,0E0,0E0,0E0,0E0,0E0,0E0,0E0,0E0,0E0,0E0,0E0,0E0,0E0,0E0,0E0,0E0,0E0,0E0,0E0,0E0,0E0,0E0,0E0,0E0,0E0,0E0,0E0,0E0,0E0,0E0,0E0,0E0,0E0,0E0,0E0,0E0,0E0,0E0,0E0,0E0,0E0,0E0,0E0,0E0,0E0,0E0,0E0,0E0,0E0,0E0,0E0,0E0,0E0,0E0,0E0,0E0,0E0,0E0,0E0,0E0,0E0,0E0,0E0,0E0,0E0,0E0,0E0,0E0,0E0,0E0,0E0,0E0,0E0,0E0],"parents":[2147483647,0,0,1,1,2,2,3,3,4,4,5,5,6,6,7,7,8,8,9,9,10,10,11,11,12,12,13,13,14,14,15,15,16,16,17,17,18,18,19,19,20,20,21,21,22,22,23,23,24,24,25,25,26,26,27,27,28,28,29,29,30,30,31,31,32,32,33,33,34,34,35,35,36,36,37,37,39,39,40,40,41,41,42,42,43,43,44,44,46,46,47,47,48,48,49,49,50,50,51,51,52,52,53,53,54,54,55,55,57,57,59,59,60,60,61,61,62,62,69,69,71,71,76,76,77,77,78,78,79,79,80,80,83,83,84,84,85,85,86,86,87,87,88,88,89,89,90,90,91,91,92,92,93,93,95,95,96,96,97,97,98,98,99,99,100,100,101,101,102,102,103,103,104,104,105,105,106,106,110,110,111,111,112,112,113,113,114,114,115,115,116,116],"right_children":[2,4,6,8,10,12,14,16,18,20,22,24,26,28,30,32,34,36,38,40,42,44,46,48,50,52,54,56,58,60,62,64,66,68,70,72,74,76,-1,78,80,82,84,86,88,-1,90,92,94,96,98,100,102,104,106,108,-1,110,-1,112,114,116,118,-1,-1,-1,-1,-1,-1,120,-1,122,-1,-1,-1,-1,124,126,128,130,132,-1,-1,134,136,138,140,142,144,146,148,150,152,154,-1,156,158,160,162,164,166,168,170,172,174,176,178,-1,-1,-1,180,182,184,186,188,190,192,-1,-1,-1,-1,-1,-1,-1,-1,-1,-1,-1,-1,-1,-1,-1,-1,-1,-1,-1,-1,-1,-1,-1,-1,-1,-1,-1,-1,-1,-1,-1,-1,-1,-1,-1,-1,-1,-1,-1,-1,-1,-1,-1,-1,-1,-1,-1,-1,-1,-1,-1,-1,-1,-1,-1,-1,-1,-1,-1,-1,-1,-1,-1,-1,-1,-1,-1,-1,-1,-1,-1,-1,-1,-1,-1,-1],"split_conditions":[5.9E1,1E0,7.8E1,4.3421054E-1,2.9E1,3.3E1,3.5E-1,6.3E1,5.131579E-1,6E0,4.7368422E-1,2.4E1,5E0,7.1E1,5E0,7E1,7E1,6.7E1,6.6E1,5.6E1,3.7E1,7.2E1,2.9E1,1.4E1,2E0,3.8157895E-1,8.1E1,6.7E1,5E0,7.8E1,7.631579E-1,6.1E1,3.6666667E-1,6.2E1,3.9473686E-1,6.4E1,2.4E1,3.9E1,-1.7063902E-1,6.9E1,4E-1,1.1E1,7.2E1,1.1E1,6.2E1,9.910077E-2,1E0,3.3E1,3.2E1,5.147059E-1,1.2E1,6.9E1,7.5E1,7.763158E-1,6.6E1,2.6E1,-2.2732763E-1,7.5E1,-1.5222256E-1,7.6E1,7.5E1,8.6E1,8.6E1,-2.0994535E-1,-6.5266125E-2,1.9516693E-1,-1.3710302E-1,-1.9760117E-1,7.152068E-2,5.4E1,-1.5001173E-1,5.3E1,-1.4139679E-1,5.5444922E-2,5.117277E-1,-1.2815277E-1,5.8928573E-1,4.6E1,2.6E1,1.3E1,2.6E1,-1.3622935E-1,3.0736306E-1,3.6E1,4.6E1,2.3684211E-1,1.3E1,6.7E1,6.2E1,1.8E1,7.6E1,4.3E1,7.4E1,2.2E1,-1.6870564E-1,2.4E1,2.6E1,1.3E1,6.5E1,7.1E1,3.1666666E-1,5.7E1,6.7E1,7E1,6.7E1,1E0,7.8E1,-1.21604495E-1,2.4819152E-1,1.9287068E-2,7.8E1,7.6E1,1E0,7.1E1,8.3E1,4.5E-1,8E1,-2.1253227E-1,7.080954E-2,4.1680494E-1,1.8003216E-1,2.5084648E-1,1.0755661E-2,-7.1125835E-2,3.1140238E-1,-1.4252524E-1,1.8387383E-1,-1.8861309E-1,-1.0498849E-2,-1.2600802E-1,1.2793356E-1,5.6582963E-1,7.715856E-2,-1.5758477E-1,1.5010248E-1,4.067413E-3,-2.1369396E-1,1.3090485E-1,-1.9249316E-1,1.2090959E-1,-8.654308E-2,-1.1121821E-1,2.0231938E-1,-6.9899976E-2,3.263318E-1,-2.0016347E-1,1.8059533E-2,1.8334411E-1,-1.9424675E-1,1.0978343E-1,-1.677122E-1,2.7570194E-2,3.8418207E-1,-1.3266937E-1,2.2040904E-1,-1.8347378E-1,8.9436285E-2,4.28275E-2,-2.168645E-1,-1.39369E-1,9.50416E-2,-1.3045847E-1,-2.1620508E-1,8.409213E-2,1.9477352E-1,-5.6464445E-2,8.3432205E-2,-5.2093018E-2,3.7160493E-2,1.5275942E-1,-2.736034E-2,-4.5070913E-2,5.0796224E-3,3.3202025E-1,-7.1930266E-3,-2.1393836E-1,2.7898643E-2,1.7123441E-1,-5.676443E-2,3.659037E-1,1.030159E-1,-6.274065E-2,3.019912E-1,-1.711869E-1,-9.309564E-2,-1.283092E-2,1.855977E-1,-1.4147007E-1,7.438097E-2,-7.03268E-2,9.704982E-2,-2.0003091E-1,8.299666E-2],"split_indices":[11,13,11,0,4,12,0,5,0,13,0,12,13,4,13,2,9,2,8,11,11,9,12,4,13,0,9,8,13,3,0,4,0,6,0,8,5,12,0,2,0,13,2,13,12,0,27,5,5,0,3,8,9,0,8,3,0,2,0,2,9,6,6,0,0,0,0,0,0,12,0,3,0,0,0,0,0,11,5,10,10,0,0,5,9,0,13,5,8,13,2,8,2,5,0,5,8,4,11,6,0,6,2,10,5,26,8,0,0,0,12,3,16,9,6,0,10,0,0,0,0,0,0,0,0,0,0,0,0,0,0,0,0,0,0,0,0,0,0,0,0,0,0,0,0,0,0,0,0,0,0,0,0,0,0,0,0,0,0,0,0,0,0,0,0,0,0,0,0,0,0,0,0,0,0,0,0,0,0,0,0,0,0,0,0,0,0,0,0,0,0,0,0],"split_type":[0,0,0,0,0,0,0,0,0,0,0,0,0,0,0,0,0,0,0,0,0,0,0,0,0,0,0,0,0,0,0,0,0,0,0,0,0,0,0,0,0,0,0,0,0,0,0,0,0,0,0,0,0,0,0,0,0,0,0,0,0,0,0,0,0,0,0,0,0,0,0,0,0,0,0,0,0,0,0,0,0,0,0,0,0,0,0,0,0,0,0,0,0,0,0,0,0,0,0,0,0,0,0,0,0,0,0,0,0,0,0,0,0,0,0,0,0,0,0,0,0,0,0,0,0,0,0,0,0,0,0,0,0,0,0,0,0,0,0,0,0,0,0,0,0,0,0,0,0,0,0,0,0,0,0,0,0,0,0,0,0,0,0,0,0,0,0,0,0,0,0,0,0,0,0,0,0,0,0,0,0,0,0,0,0,0,0,0,0,0,0,0,0],"sum_hessian":[2.787796E3,2.2350395E2,2.5642917E3,3.531381E1,1.8819014E2,2.1882705E3,3.760213E2,2.01309E1,1.518291E1,3.836095E1,1.498292E2,8.194403E1,2.1063264E3,2.0118374E1,3.5590292E2,1.0147611E1,9.98329E0,8.333278E0,6.849632E0,1.641981E1,2.1941141E1,9.426854E1,5.5560654E1,1.6463829E1,6.54802E1,1.2884526E3,8.1787384E2,6.905315E0,1.3213059E1,2.7664978E2,7.925314E1,7.711122E0,2.4364882E0,4.057781E0,5.9255085E0,4.1368814E0,4.196397E0,4.516287E0,2.3333452E0,1.0381133E1,6.038677E0,3.3684757E0,1.8572664E1,6.639509E1,2.787345E1,2.0213377E0,5.3539314E1,9.049342E0,7.414487E0,2.7809473E1,3.767073E1,2.644429E2,1.0240098E3,7.3704364E2,8.0830215E1,2.3058777E0,4.599437E0,1.19089E1,1.3041595E0,1.9021344E2,8.643635E1,7.307443E1,6.1787086E0,6.356717E0,1.3544049E0,1.1850568E0,1.2514315E0,2.6035645E0,1.4542167E0,4.539836E0,1.3856727E0,2.7549863E0,1.3818948E0,1.0048102E0,3.1915865E0,1.1759582E0,3.3403287E0,3.7927942E0,6.5883384E0,2.3287776E0,3.7099E0,1.1881456E0,2.18033E0,7.094573E0,1.1478092E1,3.7394257E1,2.9000835E1,2.249963E1,5.3738194E0,4.6463425E1,7.075891E0,5.065593E0,3.9837494E0,2.802578E0,4.6119084E0,1.817317E1,9.636304E0,2.8566995E0,3.481403E1,1.1364163E2,1.5080127E2,6.249078E2,3.9910202E2,7.114474E2,2.559622E1,1.0204246E1,7.062597E1,1.0724651E0,1.2334127E0,1.6404836E0,1.0268416E1,1.3880869E1,1.7633257E2,4.0832897E1,4.5603455E1,5.8661922E1,1.441251E1,5.139757E0,1.0389515E0,1.139018E0,3.4008176E0,1.6262646E0,1.1287217E0,1.4798298E0,1.8604989E0,1.4295641E0,2.3632302E0,3.5910196E0,2.9973187E0,1.0534735E0,1.2753041E0,2.7032623E0,1.0066376E0,4.4062033E0,2.6883695E0,1.5140541E0,9.964038E0,1.1443994E0,3.6249855E1,8.849731E0,2.0151104E1,2.0771896E1,1.7277343E0,1.3989412E0,3.9748783E0,4.4237186E1,2.2262368E0,2.7850134E0,4.2908773E0,2.9623103E0,2.1032822E0,1.2660787E0,2.717671E0,1.1839753E0,1.6186028E0,3.0839465E0,1.5089223E1,1.2257264E0,8.410577E0,1.3787034E0,1.4779961E0,1.3285358E1,2.1528671E1,8.176279E1,3.187884E1,7.0874565E1,7.9926704E1,6.74283E1,5.574795E2,1.4410334E1,3.8469168E2,5.2014233E2,1.9130508E2,9.062498E0,1.6533722E1,8.88953E0,1.3147156E0,5.071963E1,1.9906338E1,8.109135E0,2.159282E0,1.1316581E1,2.5642881E0,5.9873035E1,1.1645953E2,2.722263E1,1.3610269E1,3.5667397E1,9.936057E0,8.662921E0,4.9999E1,7.594715E0,6.8177953E0],"tree_param":{"num_deleted":"0","num_feature":"31","num_nodes":"193","size_leaf_vector":"1"}},{"base_weights":[-4.696511E-2,-3.4690145E-1,-2.2418024E-2,1.2676922E-2,-4.4477978E-1,-4.3506064E-3,-5.017125E-1,-5.4822344E-1,3.5062897E-1,9.070376E-1,-4.7367933E-1,-1.494163E-1,2.9449433E-2,-6.9694656E-1,3.1700516E-1,-7.475001E-1,4.5864013E-1,-3.5152665E-1,6.4980626E-1,-1.0315363E-2,3.3140138E-1,4.5868576E-1,-5.1062816E-1,1.1972506E-2,-3.411055E-1,1.2041138E-2,4.8822096E-1,-7.453548E-1,4.2053404E-1,-1.9724874E-1,8.0072457E-1,2.1832177E-2,-8.780094E-1,-4.40741E-2,1.883715E-1,-1.9155128E-1,2.4796906E-1,8.784354E-1,-3.2383317E-1,-4.1023913E-1,3.3317414E-1,-2.4736872E-1,-6.2552696E-1,3.5386574E-1,-2.1321307E-1,-4.429501E-1,1.802066E-1,1.6702954E-2,-1.0264753E0,6.4882857E-1,-5.922761E-1,-8.173926E-1,-1.7278749E-1,2.2217818E-1,-6.845643E-2,-1.795228E-1,1.1998544E0,-2.2574449E-1,-9.8390675E-1,2.611867E-1,-1.7755094E-1,-4.85974E-2,1.2309419E0,8.997999E-2,-1.641462E-1,1.0281702E-1,-1.7340292E-1,-3.0761536E-2,-6.963701E-1,-7.729584E-1,-3.3494815E-1,9.5002395E-1,-1.9757703E-1,-2.9586765E-1,5.2904135E-1,6.144922E-1,-4.9010795E-1,-2.1156609E-1,4.4238955E-1,-1.6270426E-1,4.2473298E-2,-4.6444044E-2,-2.2468345E-1,2.8300429E-2,9.216944E-1,3.5510385E-1,-2.0969954E-1,-5.761011E-1,-9.141652E-1,-8.3005655E-1,5.687284E-1,1.592659E0,-1.1899983E-1,6.754052E-2,-1.3082805E-1,-6.1248213E-2,-2.1035397E-1,-1.719772E-1,1.6908467E-1,2.9751328E-1,-3.064088E-2,-3.4788366E-2,3.3842844E-1,-1.3585237E-2,-1.8228917E-1,-1.6301626E-1,1.0070709E-1,1.9146071E-1,-8.90098E-2,1.406648E-1,4.4492742E-1,-1.0213693E-1,6.757371E-2,1.3229834E-1,-7.256358E-2,2.676711E-1,-6.0858507E-2,2.521592E-1,-1.1682563E-1,-1.1382288E-1,2.5521085E-2,1.3829891E-1,-6.7403734E-2,-4.4432E-2,9.665235E-2,3.0880803E-2,-5.206152E-3,1.9466722E-1,-9.972339E-2,3.5821143E-1,8.889436E-2,1.9389027E-1,-1.3620767E-1,-1.7053372E-1,1.8071912E-1,-2.1388863E-1,-1.2515944E-1,-3.3582255E-2,-1.9164847E-1,2.1660161E-1,-3.3045024E-2,4.531211E-1,-4.0644845E-3],"categories":[],"categories_nodes":[],"categories_segments":[],"categories_sizes":[],"default_left":[0,0,0,0,0,0,0,0,0,0,0,0,0,0,0,0,0,0,0,0,0,0,0,0,0,0,0,0,0,0,0,0,0,0,0,0,0,0,0,0,0,0,0,0,0,0,0,0,0,0,0,0,0,0,0,0,0,0,0,0,0,0,0,0,0,0,0,0,0,0,0,0,0,0,0,0,0,0,0,0,0,0,0,0,0,0,0,0,0,0,0,0,0,0,0,0,0,0,0,0,0,0,0,0,0,0,0,0,0,0,0,0,0,0,0,0,0,0,0,0,0,0,0,0,0,0,0,0,0,0,0,0,0,0,0,0,0,0,0,0,0,0,0],"id":6,"left_children":[1,3,5,7,9,11,13,15,17,19,21,23,25,27,29,31,33,35,37,-1,-1,39,41,43,45,47,49,51,53,-1,55,-1,57,-1,-1,-1,59,61,63,65,-1,67,69,71,73,75,77,79,81,83,85,87,89,-1,-1,-1,91,93,95,-1,-1,97,99,-1,-1,-1,-1,101,103,105,107,109,111,113,115,117,119,-1,121,123,125,-1,-1,127,129,131,-1,133,135,137,139,141,-1,-1,-1,-1,-1,-1,-1,-1,-1,-1,-1,-1,-1,-1,-1,-1,-1,-1,-1,-1,-1,-1,-1,-1,-1,-1,-1,-1,-1,-1,-1,-1,-1,-1,-1,-1,-1,-1,-1,-1,-1,-1,-1,-1,-1,-1,-1,-1,-1,-1,-1],"loss_changes":[2.0216839E1,7.3169327E0,2.1995102E1,8.801948E0,6.8099403E0,1.2012141E1,1.4969259E1,3.847536E0,6.310534E0,2.7896721E0,5.7653275E0,1.4325798E1,1.5863222E1,4.3605804E0,1.2422869E1,1.7685814E0,1.3577967E0,3.6172183E0,4.8819714E0,0E0,0E0,7.6557283E0,4.5309715E0,1.9499872E1,1.1316351E1,9.290272E0,1.2985815E1,2.8313713E0,2.352756E0,0E0,1.0573873E1,0E0,6.823416E-1,0E0,0E0,0E0,7.731905E0,5.613612E0,2.1601703E0,2.4163187E0,0E0,4.71706E0,4.3330574E0,3.324771E1,9.527008E0,9.144512E0,1.1925992E1,8.827479E0,3.9941502E-1,1.0759045E1,4.6598263E0,9.618683E-1,5.0154657E0,0E0,0E0,0E0,9.247255E0,9.756214E-1,1.822815E-1,0E0,0E0,4.820699E0,4.6150913E0,0E0,0E0,0E0,0E0,8.660007E0,2.0748825E0,4.1928024E0,5.8103147E0,1.3684399E1,9.069649E0,9.089889E0,1.097056E1,6.9452553E0,8.38504E0,0E0,6.0257936E0,9.318329E0,1.2801325E1,0E0,0E0,1.068655E1,1.7545826E1,3.1881766E0,0E0,9.344812E0,1.2917671E0,2.9305935E-1,2.0563226E0,1.0824909E1,0E0,0E0,0E0,0E0,0E0,0E0,0E0,0E0,0E0,0E0,0E0,0E0,0E0,0E0,0E0,0E0,0E0,0E0,0E0,0E0,0E0,0E0,0E0,0E0,0E0,0E0,0E0,0E0,0E0,0E0,0E0,0E0,0E0,0E0,0E0,0E0,0E0,0E0,0E0,0E0,0E0,0E0,0E0,0E0,0E0,0E0,0E0,0E0,0E0,0E0,0E0],"parents":[2147483647,0,0,1,1,2,2,3,3,4,4,5,5,6,6,7,7,8,8,9,9,10,10,11,11,12,12,13,13,14,14,15,15,16,16,17,17,18,18,21,21,22,22,23,23,24,24,25,25,26,26,27,27,28,28,30,30,32,32,36,36,37,37,38,38,39,39,41,41,42,42,43,43,44,44,45,45,46,46,47,47,48,48,49,49,50,50,51,51,52,52,56,56,57,57,58,58,61,61,62,62,67,67,68,68,69,69,70,70,71,71,72,72,73,73,74,74,75,75,76,76,78,78,79,79,80,80,83,83,84,84,85,85,87,87,88,88,89,89,90,90,91,91],"right_children":[2,4,6,8,10,12,14,16,18,20,22,24,26,28,30,32,34,36,38,-1,-1,40,42,44,46,48,50,52,54,-1,56,-1,58,-1,-1,-1,60,62,64,66,-1,68,70,72,74,76,78,80,82,84,86,88,90,-1,-1,-1,92,94,96,-1,-1,98,100,-1,-1,-1,-1,102,104,106,108,110,112,114,116,118,120,-1,122,124,126,-1,-1,128,130,132,-1,134,136,138,140,142,-1,-1,-1,-1,-1,-1,-1,-1,-1,-1,-1,-1,-1,-1,-1,-1,-1,-1,-1,-1,-1,-1,-1,-1,-1,-1,-1,-1,-1,-1,-1,-1,-1,-1,-1,-1,-1,-1,-1,-1,-1,-1,-1,-1,-1,-1,-1,-1,-1,-1,-1],"split_conditions":[5.9E1,5.1E1,8.3E1,3.2E1,5.2E1,4.6E1,8.7E1,5.8E1,3.8157895E-1,5.3E1,1.7E1,4.7058824E-1,1E0,9.1E1,1E0,3.2E1,4E-1,3.9E1,7E0,-1.0315363E-2,3.3140138E-1,5.8E1,3.8235295E-1,1E0,9E0,8.7E1,7.7E1,5E0,6.666667E-1,-1.9724874E-1,6.4E1,2.1832177E-2,2.3E1,-4.40741E-2,1.883715E-1,-1.9155128E-1,4.9E1,1E0,4.4E1,2.6E1,3.3317414E-1,5.8E1,7.3E1,6.9E1,7.7E1,1.2E1,5.8E1,4.2E1,8.2E1,5.3E1,4.5E-1,7.4E1,8.1E1,2.2217818E-1,-6.845643E-2,-1.795228E-1,5E0,4.5E-1,3.8E1,2.611867E-1,-1.7755094E-1,4.5E1,5.4E1,8.997999E-2,-1.641462E-1,1.0281702E-1,-1.7340292E-1,6.8E1,5.4E1,7.5E1,3.2E1,4.473684E-1,3.9E1,1.3E1,3.3E1,3E0,7.368421E-1,-2.1156609E-1,4.2E1,1.2E1,6.9E1,-4.6444044E-2,-2.2468345E-1,5.7E1,5.9E1,7.6E1,-2.0969954E-1,7.9E1,1E0,6.8333334E-1,8.7E1,8.7E1,-1.1899983E-1,6.754052E-2,-1.3082805E-1,-6.1248213E-2,-2.1035397E-1,-1.719772E-1,1.6908467E-1,2.9751328E-1,-3.064088E-2,-3.4788366E-2,3.3842844E-1,-1.3585237E-2,-1.8228917E-1,-1.6301626E-1,1.0070709E-1,1.9146071E-1,-8.90098E-2,1.406648E-1,4.4492742E-1,-1.0213693E-1,6.757371E-2,1.3229834E-1,-7.256358E-2,2.676711E-1,-6.0858507E-2,2.521592E-1,-1.1682563E-1,-1.1382288E-1,2.5521085E-2,1.3829891E-1,-6.7403734E-2,-4.4432E-2,9.665235E-2,3.0880803E-2,-5.206152E-3,1.9466722E-1,-9.972339E-2,3.5821143E-1,8.889436E-2,1.9389027E-1,-1.3620767E-1,-1.7053372E-1,1.8071912E-1,-2.1388863E-1,-1.2515944E-1,-3.3582255E-2,-1.9164847E-1,2.1660161E-1,-3.3045024E-2,4.531211E-1,-4.0644845E-3],"split_indices":[11,6,1,12,1,10,12,11,0,11,4,0,15,7,28,11,0,10,13,0,0,7,0,13,13,5,11,13,0,0,7,0,7,0,0,0,10,16,6,12,0,12,7,11,7,10,7,3,12,4,0,5,11,0,0,0,13,0,11,0,0,10,7,0,0,0,0,10,10,12,10,0,3,4,3,13,0,0,10,13,5,0,0,5,4,6,0,7,16,0,6,10,0,0,0,0,0,0,0,0,0,0,0,0,0,0,0,0,0,0,0,0,0,0,0,0,0,0,0,0,0,0,0,0,0,0,0,0,0,0,0,0,0,0,0,0,0,0,0,0,0,0,0],"split_type":[0,0,0,0,0,0,0,0,0,0,0,0,0,0,0,0,0,0,0,0,0,0,0,0,0,0,0,0,0,0,0,0,0,0,0,0,0,0,0,0,0,0,0,0,0,0,0,0,0,0,0,0,0,0,0,0,0,0,0,0,0,0,0,0,0,0,0,0,0,0,0,0,0,0,0,0,0,0,0,0,0,0,0,0,0,0,0,0,0,0,0,0,0,0,0,0,0,0,0,0,0,0,0,0,0,0,0,0,0,0,0,0,0,0,0,0,0,0,0,0,0,0,0,0,0,0,0,0,0,0,0,0,0,0,0,0,0,0,0,0,0,0,0],"sum_hessian":[2.7459526E3,2.0673717E2,2.5392156E3,4.442014E1,1.6231702E2,2.447947E3,9.126839E1,1.6467226E1,2.7952911E1,2.7614293E0,1.5955559E2,4.6193918E2,1.9860079E3,7.3814964E1,1.7453417E1,1.3961571E1,2.5056548E0,8.299464E0,1.9653448E1,1.6208626E0,1.1405667E0,5.646936E0,1.5390866E2,2.512999E2,2.1063928E2,1.9143917E3,7.161622E1,7.106931E1,2.745652E0,4.4432983E0,1.3010119E1,1.8674214E0,1.209415E1,1.2679291E0,1.2377257E0,3.829423E0,4.4700413E0,1.5995241E1,3.6582062E0,3.6673596E0,1.9795761E0,4.772127E1,1.06187386E2,9.9563644E1,1.5173625E2,1.7633954E2,3.4299736E1,1.906816E3,7.5756273E0,6.2696392E1,8.919828E0,6.274716E1,8.322153E0,1.2017518E0,1.5439003E0,2.2380514E0,1.0772068E1,2.1266952E0,9.967454E0,2.2366545E0,2.233387E0,4.644122E0,1.1351119E1,1.4675801E0,2.1906264E0,1.1714216E0,2.495938E0,3.2912254E1,1.4809014E1,6.93441E1,3.6843285E1,4.7494793E1,5.206885E1,1.3707365E2,1.4662599E1,7.014721E0,1.6932481E2,5.463971E0,2.8835764E1,2.3882909E2,1.6679869E3,1.1934035E0,6.3822236E0,1.9486217E1,4.3210175E1,2.9713104E0,5.948518E0,1.9952082E1,4.2795082E1,4.348394E0,3.9737592E0,8.930316E0,1.8417519E0,1.0099992E0,1.1166961E0,1.4091027E0,8.5583515E0,2.4547312E0,2.1893907E0,9.512718E0,1.8384011E0,3.1217035E1,1.6952208E0,4.111417E0,1.0697598E1,6.747884E1,1.8652606E0,2.2884927E0,3.455479E1,4.1093067E1,6.4017253E0,3.2885147E1,1.9183704E1,8.378882E0,1.2869478E2,7.131058E0,7.5315404E0,4.5236607E0,2.4910603E0,1.5019353E2,1.9131292E1,2.1937244E1,6.898521E0,2.1930042E2,1.9528677E1,6.327936E2,1.0351934E3,6.672229E0,1.2813989E1,1.4337774E1,2.8872398E1,1.9057319E0,1.0655786E0,1.7167154E1,2.784927E0,2.6056044E1,1.6739037E1,1.0799265E0,3.2684674E0,2.0569072E0,1.916852E0,6.0158544E0,2.9144616E0],"tree_param":{"num_deleted":"0","num_feature":"31","num_nodes":"143","size_leaf_vector":"1"}},{"base_weights":[-4.0730078E-2,-1.742382E-2,-3.5449886E-1,-2.4420968E-1,5.9781726E-3,-5.8234376E-1,-1.6681142E-1,2.2487944E-1,-3.5064974E-1,-3.300352E-1,1.8344227E-2,-3.9788648E-1,-9.9137515E-1,1.2648842E-1,-5.260355E-1,-4.8548216E-3,8.966131E-1,4.2217556E-1,-3.9754152E-1,-1.5529986E-1,-9.158532E-1,9.36205E-2,-5.254935E-2,6.2548214E-1,-4.7043017E-1,-1.0219457E0,-2.4289066E-2,1.4263768E0,5.865574E-3,-1.1336656E-1,-8.1301206E-1,-8.816078E-1,2.3068455E-1,1.2016227E0,-1.597551E-1,-2.7681994E-1,1.0114671E0,-4.968871E-1,-1.3743842E-1,-4.521703E-1,4.3586358E-1,-1.0039407E0,5.5386275E-2,-1.0567598E-2,2.1729378E-1,-2.8107902E-1,7.037611E-5,2.7324376E-1,-1.3103884E-1,-2.0688026E-1,-3.1552517E-1,-5.233316E-1,-2.1553266E-1,2.1491157E-2,3.73044E-1,-7.939795E-2,2.682627E-1,-8.3322144E-1,3.143238E-1,3.2998976E-1,-9.17747E-1,-3.4766E-2,-2.0900492E-1,-1.7061284E-1,5.046121E-1,1.4760777E0,-3.8828056E-3,-1.9201203E-1,2.0702754E-1,2.912361E-1,-1.2600656E-1,-1.471561E-1,-5.885773E-1,2.8150243E-1,-6.47623E-1,-2.0043345E-1,-2.645963E-1,-3.418008E-1,7.819856E-1,-2.185835E-1,-5.072205E-1,3.978465E-1,-8.9290485E-2,-2.419804E-1,3.1432799E-1,-1.5145032E-1,-8.176703E-1,-6.682706E-2,1.8142325E-1,2.4538723E-1,-3.807937E-1,-1.6539179E-1,1.7562842E-2,-1.9869222E-1,4.3563373E-2,-2.1258639E-1,7.402698E-2,-5.572866E-2,1.4413929E0,-1.1628082E-1,2.1525212E-1,-9.817912E-1,3.040194E-2,2.360219E-2,2.4548887E-1,3.4441662E-1,1.2147825E-1,-1.18653975E-1,9.563928E-2,-4.7747985E-2,-1.4405014E-1,-1.3030553E-1,1.4995661E-1,7.480324E-2,-1.4776325E-1,2.832051E-2,-1.3294306E-1,1.19337015E-1,-1.6814566E-1,-5.2882205E-3,2.981614E-1,7.2401226E-2,-1.7309207E-1,2.5812155E-2,1.6725881E-1,3.1190273E-1,-2.0247258E-2,9.207069E-2,-1.0175022E-1,4.6197005E-2,1.682983E-1,-1.5161685E-2,-2.0853572E-1,-4.8466742E-2,-2.1778312E-1,7.081917E-2,-2.2437325E-2,-7.563036E-2,6.760577E-2,-9.616511E-2,1.1655104E-1,3.749494E-2,-2.0005348E-1,1.6499941E-1,-1.7652944E-1,4.1008707E-2,4.09641E-1,-2.0264427E-1,-3.471031E-2],"categories":[],"categories_nodes":[],"categories_segments":[],"categories_sizes":[],"default_left":[0,0,0,0,0,0,0,0,0,0,0,0,0,0,0,0,0,0,0,0,0,0,0,0,0,0,0,0,0,0,0,0,0,0,0,0,0,0,0,0,0,0,0,0,0,0,0,0,0,0,0,0,0,0,0,0,0,0,0,0,0,0,0,0,0,0,0,0,0,0,0,0,0,0,0,0,0,0,0,0,0,0,0,0,0,0,0,0,0,0,0,0,0,0,0,0,0,0,0,0,0,0,0,0,0,0,0,0,0,0,0,0,0,0,0,0,0,0,0,0,0,0,0,0,0,0,0,0,0,0,0,0,0,0,0,0,0,0,0,0,0,0,0,0,0,0,0,0,0],"id":7,"left_children":[1,3,5,7,9,11,13,15,17,19,21,23,25,27,29,31,33,35,37,39,41,43,45,47,49,51,-1,53,55,57,59,61,63,65,-1,67,69,71,73,75,77,79,-1,81,83,85,87,-1,-1,-1,89,91,-1,-1,-1,93,-1,95,97,99,101,-1,-1,-1,103,105,-1,-1,-1,-1,-1,107,109,111,113,-1,115,117,119,-1,121,123,125,127,129,131,133,135,137,-1,139,-1,-1,-1,141,-1,-1,143,145,-1,-1,147,-1,-1,-1,-1,-1,-1,-1,-1,-1,-1,-1,-1,-1,-1,-1,-1,-1,-1,-1,-1,-1,-1,-1,-1,-1,-1,-1,-1,-1,-1,-1,-1,-1,-1,-1,-1,-1,-1,-1,-1,-1,-1,-1,-1,-1,-1,-1],"loss_changes":[2.007787E1,1.3575198E1,8.021273E0,1.202482E1,9.643256E0,6.0448895E0,1.1181713E1,6.926812E0,7.2488575E0,8.290397E0,1.1947994E1,4.7850723E0,5.6349945E-1,9.224372E0,5.5464697E0,7.3115683E0,6.8740845E0,5.083972E0,4.705267E0,1.1544365E1,2.2451649E0,1.3992952E1,1.3867065E1,5.100934E0,4.6583214E0,1.2619972E-1,0E0,2.6912441E0,6.3562846E0,6.632355E0,3.645378E0,6.8538857E-1,8.720312E0,3.4108782E0,0E0,6.479541E0,5.6936293E0,4.187725E0,1.1390654E1,4.2259283E0,6.2223697E0,2.2576141E-1,0E0,1.9013643E1,2.2203388E1,1.4888542E1,1.1396129E1,0E0,0E0,0E0,5.118554E0,8.967165E-1,0E0,0E0,0E0,5.9482265E0,0E0,2.600865E0,5.796746E0,2.7200828E0,1.9197273E0,0E0,0E0,0E0,6.2596893E0,7.1777916E-1,0E0,0E0,0E0,0E0,0E0,8.379864E0,4.677414E0,1.3374082E1,2.5074835E0,0E0,5.5909476E0,4.0181084E0,8.986794E0,0E0,1.7293477E0,1.1155192E1,9.921293E0,1.6566498E1,1.7834282E1,1.1722462E1,6.254133E0,1.3141495E1,2.2310226E1,0E0,4.6261797E0,0E0,0E0,0E0,7.287818E0,0E0,0E0,8.94398E0,2.149582E0,0E0,0E0,4.46949E-1,0E0,0E0,0E0,0E0,0E0,0E0,0E0,0E0,0E0,0E0,0E0,0E0,0E0,0E0,0E0,0E0,0E0,0E0,0E0,0E0,0E0,0E0,0E0,0E0,0E0,0E0,0E0,0E0,0E0,0E0,0E0,0E0,0E0,0E0,0E0,0E0,0E0,0E0,0E0,0E0,0E0,0E0,0E0,0E0,0E0,0E0,0E0],"parents":[2147483647,0,0,1,1,2,2,3,3,4,4,5,5,6,6,7,7,8,8,9,9,10,10,11,11,12,12,13,13,14,14,15,15,16,16,17,17,18,18,19,19,20,20,21,21,22,22,23,23,24,24,25,25,27,27,28,28,29,29,30,30,31,31,32,32,33,33,35,35,36,36,37,37,38,38,39,39,40,40,41,41,43,43,44,44,45,45,46,46,50,50,51,51,55,55,57,57,58,58,59,59,60,60,64,64,65,65,71,71,72,72,73,73,74,74,76,76,77,77,78,78,80,80,81,81,82,82,83,83,84,84,85,85,86,86,87,87,88,88,90,90,94,94,97,97,98,98,101,101],"right_children":[2,4,6,8,10,12,14,16,18,20,22,24,26,28,30,32,34,36,38,40,42,44,46,48,50,52,-1,54,56,58,60,62,64,66,-1,68,70,72,74,76,78,80,-1,82,84,86,88,-1,-1,-1,90,92,-1,-1,-1,94,-1,96,98,100,102,-1,-1,-1,104,106,-1,-1,-1,-1,-1,108,110,112,114,-1,116,118,120,-1,122,124,126,128,130,132,134,136,138,-1,140,-1,-1,-1,142,-1,-1,144,146,-1,-1,148,-1,-1,-1,-1,-1,-1,-1,-1,-1,-1,-1,-1,-1,-1,-1,-1,-1,-1,-1,-1,-1,-1,-1,-1,-1,-1,-1,-1,-1,-1,-1,-1,-1,-1,-1,-1,-1,-1,-1,-1,-1,-1,-1,-1,-1,-1,-1],"split_conditions":[8.5E1,6E1,7.1E1,1E0,3.3E1,1.1E1,6.666667E-1,6.2E1,5.4E1,6.1E1,6.9E1,2.5E1,8.2E1,5.5E1,8.3E1,1E0,7.2E1,5.1E1,6E1,3.6E1,5.8E1,6E1,6.2E1,8.3E1,6.4E1,4.1E1,-2.4289066E-2,8.5E1,1.2E1,8.1E1,7.2E1,5.3E1,6.3E1,6.9E1,-1.597551E-1,5.147059E-1,1.7E1,3.5714287E-1,6.5E1,6.2E1,6.7E1,7.9E1,5.5386275E-2,2.9E1,5.8E1,7.9E1,7.1E1,2.7324376E-1,-1.3103884E-1,-2.0688026E-1,7.6E1,4.5E1,-2.1553266E-1,2.1491157E-2,3.73044E-1,6.3E1,2.682627E-1,8.4E1,8E1,7.3E1,8.9E1,-3.4766E-2,-2.0900492E-1,-1.7061284E-1,5.8E1,6.9E1,-3.8828056E-3,-1.9201203E-1,2.0702754E-1,2.912361E-1,-1.2600656E-1,6.9E1,2.9E1,3.9473686E-1,2.6E1,-2.0043345E-1,7.1E1,3.7E1,4.3E1,-2.185835E-1,8.2E1,6.7E1,1.5E1,6.5E1,1E0,7.236842E-1,1E0,5.6E1,7.2E1,2.4538723E-1,7E1,-1.6539179E-1,1.7562842E-2,-1.9869222E-1,1E0,-2.1258639E-1,7.402698E-2,7.4E1,7.5E1,-1.1628082E-1,2.1525212E-1,8.9E1,3.040194E-2,2.360219E-2,2.4548887E-1,3.4441662E-1,1.2147825E-1,-1.18653975E-1,9.563928E-2,-4.7747985E-2,-1.4405014E-1,-1.3030553E-1,1.4995661E-1,7.480324E-2,-1.4776325E-1,2.832051E-2,-1.3294306E-1,1.19337015E-1,-1.6814566E-1,-5.2882205E-3,2.981614E-1,7.2401226E-2,-1.7309207E-1,2.5812155E-2,1.6725881E-1,3.1190273E-1,-2.0247258E-2,9.207069E-2,-1.0175022E-1,4.6197005E-2,1.682983E-1,-1.5161685E-2,-2.0853572E-1,-4.8466742E-2,-2.1778312E-1,7.081917E-2,-2.2437325E-2,-7.563036E-2,6.760577E-2,-9.616511E-2,1.1655104E-1,3.749494E-2,-2.0005348E-1,1.6499941E-1,-1.7652944E-1,4.1008707E-2,4.09641E-1,-2.0264427E-1,-3.471031E-2],"split_indices":[2,11,3,13,12,13,0,3,1,7,5,5,4,9,1,28,1,4,12,5,10,12,9,1,9,10,0,4,13,7,7,7,9,3,0,0,13,0,12,9,11,8,0,10,4,8,3,0,0,0,1,4,0,0,0,9,0,11,12,8,1,0,0,0,7,10,0,0,0,0,0,9,4,0,3,0,9,5,8,0,8,8,3,1,26,0,13,12,11,0,3,0,0,0,26,0,0,8,8,0,0,7,0,0,0,0,0,0,0,0,0,0,0,0,0,0,0,0,0,0,0,0,0,0,0,0,0,0,0,0,0,0,0,0,0,0,0,0,0,0,0,0,0,0,0,0,0,0,0],"split_type":[0,0,0,0,0,0,0,0,0,0,0,0,0,0,0,0,0,0,0,0,0,0,0,0,0,0,0,0,0,0,0,0,0,0,0,0,0,0,0,0,0,0,0,0,0,0,0,0,0,0,0,0,0,0,0,0,0,0,0,0,0,0,0,0,0,0,0,0,0,0,0,0,0,0,0,0,0,0,0,0,0,0,0,0,0,0,0,0,0,0,0,0,0,0,0,0,0,0,0,0,0,0,0,0,0,0,0,0,0,0,0,0,0,0,0,0,0,0,0,0,0,0,0,0,0,0,0,0,0,0,0,0,0,0,0,0,0,0,0,0,0,0,0,0,0,0,0,0,0],"sum_hessian":[2.7454321E3,2.5565884E3,1.888439E2,2.3825479E2,2.3183335E3,8.434715E1,1.0449674E2,4.3857754E1,1.9439703E2,8.137957E1,2.236954E3,5.949153E1,2.4855621E1,5.7883675E1,4.661307E1,3.3420612E1,1.0437143E1,1.0662626E1,1.837344E2,6.365725E1,1.7722319E1,1.0847856E3,1.1521683E3,3.433483E0,5.605805E1,2.3843E1,1.0126197E0,3.9959834E0,5.388769E1,1.9691692E1,2.6921381E1,6.496315E0,2.6924295E1,9.09258E0,1.3445637E0,5.119874E0,5.5427523E0,1.3229456E2,5.1439854E1,4.2533096E1,2.1124153E1,1.6650963E1,1.0713569E0,5.89271E2,4.955146E2,2.1482645E2,9.373419E2,2.1329823E0,1.3005006E0,1.0856078E1,4.520197E1,3.4411235E0,2.0401878E1,1.3084286E0,2.6875546E0,5.153774E1,2.349952E0,6.9857078E0,1.2705984E1,2.079249E0,2.4842133E1,1.6056738E0,4.890641E0,5.0057364E0,2.191856E1,7.253355E0,1.8392243E0,3.5429847E0,1.5768894E0,4.450047E0,1.0927052E0,2.8020756E1,1.042738E2,2.849185E1,2.2948004E1,9.7123E0,3.2820797E1,6.5100055E0,1.4614148E1,1.3103487E1,3.5474758E0,9.457297E1,4.9469803E2,8.616968E1,4.093449E2,1.7405968E2,4.076677E1,6.8521234E2,2.521296E2,1.1124992E0,4.408947E1,2.0630414E0,1.378082E0,5.271475E0,4.6266262E1,5.963937E0,1.0217708E0,1.0280971E1,2.4250138E0,1.0355227E0,1.0437261E0,2.3516478E1,1.3256543E0,1.5038564E1,6.879996E0,4.886996E0,2.3663592E0,1.6384027E1,1.1636729E1,2.9283876E1,7.498992E1,9.390448E0,1.9101402E1,1.6263719E0,2.1321632E1,1.6607273E1,1.6213524E1,2.1916194E0,4.3183856E0,7.277123E0,7.337025E0,1.0322734E0,2.5152023E0,5.9432716E1,3.514025E1,2.6265237E0,4.920715E2,2.3520641E1,6.2649036E1,3.5470526E2,5.4639664E1,1.614425E2,1.2617172E1,1.3668346E1,2.7098421E1,6.599475E1,6.192176E2,5.4823265E1,1.9730634E2,4.0396637E1,3.692835E0,4.1381462E1,4.8848E0,4.9796357E0,5.3013344E0,1.2388405E0,1.1861732E0,2.2392096E1,1.1243815E0],"tree_param":{"num_deleted":"0","num_feature":"31","num_nodes":"149","size_leaf_vector":"1"}},{"base_weights":[-2.8613256E-2,-2.6748806E-1,-6.7176493E-3,-1.19160786E-1,-5.4905635E-1,-3.3678964E-1,4.676231E-3,2.20192E-1,-1.4709295E-1,-6.298108E-1,4.602877E-1,8.894325E-2,-6.367369E-1,2.8967293E-2,-1.3923396E-1,-1.7383415E-1,2.2748911E-1,-6.8906194E-1,1.2842824E-1,9.162639E-1,-1.342546E-1,8.818856E-1,-1.4209248E-1,-4.2378286E-1,-9.1246074E-1,3.735072E-2,-3.8225275E-1,-1.8647142E-1,1.9689316E-1,-2.2020365E-1,2.941316E-1,-2.1280026E-2,-7.62682E-1,1.7883004E-1,-4.2873076E-1,2.6817036E-1,-4.8069097E-2,1.1974673E0,-1.2820771E-1,-6.7017186E-1,2.1683353E-1,-7.3568106E-1,3.3112988E-1,-9.831464E-1,-3.5888863E-1,-7.4990414E-2,7.6789886E-2,-6.886566E-1,1.252246E-1,-1.1993577E-1,-5.381912E-1,7.97601E-1,-1.742029E-1,-8.04325E-2,-4.2471224E-1,-2.3315378E-1,9.314905E-1,-4.0441692E-1,1.4480029E-1,-8.8577926E-1,-2.8521937E-1,1.591965E-2,-1.4669271E-1,2.6052666E-3,1.7503026E0,3.0397993E-2,-9.197077E-1,5.1841104E-1,-1.7226605E-1,-2.5821337E-1,-9.923077E-1,9.982699E-1,-1.7694888E-1,-5.9384596E-2,-1.0269539E0,-1.4381856E-1,4.1874807E-2,8.297422E-2,-2.0832524E-1,6.6478527E-1,6.202651E-2,2.0660613E-1,-8.551794E-1,2.8029293E-1,-1.1508044E-1,-2.80453E-1,6.10443E-2,-9.005086E-1,-3.1101424E-1,-3.5965937E-1,1.3202283E0,-3.8532266E-1,3.0353358E-1,-1.4170226E-1,-2.631462E-3,-1.554383E-1,-5.837469E-2,1.086749E-1,-1.6794491E-1,7.061069E-2,2.8880045E-1,-1.6273265E-1,2.7899196E-2,-1.829804E-1,2.9057039E-2,8.371758E-2,-1.6354878E-1,4.4603243E-1,3.6463734E-2,2.3156475E-1,-1.6070913E-1,-2.1533358E-1,1.797397E-2,-2.659438E-4,3.129402E-1,-1.17300086E-1,1.2967765E-1,-4.1000262E-2,-2.1177475E-1,-1.3076681E-1,2.8585157E-1,-6.050805E-2,-2.1630123E-1,5.7256473E-3,1.4125128E-1,-5.6317598E-2,5.052516E-2,-4.5878664E-3,2.3835967E-1,1.3808531E-2,-1.6815327E-1,-1.8171865E-1,5.6153866E-3,8.178252E-2,-1.7751935E-1,-1.3837272E-2,-1.0113492E-1,-1.0610987E-1,3.5233237E-2,6.580102E-3,-2.0892265E-1,3.0954966E-1,-8.738299E-2,1.25693455E-2,-1.6069515E-1,3.151531E-1,-6.331428E-2,-1.0237745E-1,2.626954E-1],"categories":[],"categories_nodes":[],"categories_segments":[],"categories_sizes":[],"default_left":[0,0,0,0,0,0,0,0,0,0,0,0,0,0,0,0,0,0,0,0,0,0,0,0,0,0,0,0,0,0,0,0,0,0,0,0,0,0,0,0,0,0,0,0,0,0,0,0,0,0,0,0,0,0,0,0,0,0,0,0,0,0,0,0,0,0,0,0,0,0,0,0,0,0,0,0,0,0,0,0,0,0,0,0,0,0,0,0,0,0,0,0,0,0,0,0,0,0,0,0,0,0,0,0,0,0,0,0,0,0,0,0,0,0,0,0,0,0,0,0,0,0,0,0,0,0,0,0,0,0,0,0,0,0,0,0,0,0,0,0,0,0,0,0,0,0,0,0,0],"id":8,"left_children":[1,3,5,7,9,11,13,-1,15,17,19,21,23,25,27,29,-1,31,33,35,-1,37,39,41,43,45,47,49,51,53,55,57,59,-1,61,-1,-1,63,-1,65,67,69,71,73,75,77,79,81,83,85,87,89,91,93,95,97,99,101,-1,103,105,-1,-1,-1,107,109,111,113,-1,115,117,119,-1,-1,121,-1,-1,123,125,127,129,-1,131,-1,133,135,137,139,141,143,145,147,-1,-1,-1,-1,-1,-1,-1,-1,-1,-1,-1,-1,-1,-1,-1,-1,-1,-1,-1,-1,-1,-1,-1,-1,-1,-1,-1,-1,-1,-1,-1,-1,-1,-1,-1,-1,-1,-1,-1,-1,-1,-1,-1,-1,-1,-1,-1,-1,-1,-1,-1,-1,-1,-1,-1,-1,-1],"loss_changes":[1.4100937E1,9.388884E0,9.294418E0,5.258519E0,6.6336308E0,1.0587085E1,8.357121E0,0E0,5.2499366E0,3.3450108E0,3.8879807E0,6.5303745E0,2.461155E0,7.065153E0,5.518639E0,3.2100444E0,0E0,3.2967472E0,2.9843297E0,2.750276E0,0E0,4.6255555E0,5.4402165E0,7.126675E0,4.4026184E-1,8.890528E0,6.453982E0,7.0315886E0,9.730843E0,3.751905E0,4.7527165E0,2.497291E0,3.3131027E0,0E0,7.0972383E-1,0E0,0E0,4.559498E0,0E0,2.0468273E0,6.099859E0,2.316512E0,8.375314E0,2.1810532E-1,9.4270176E-1,1.1002712E1,1.2847409E1,8.248338E0,5.149061E0,7.4621153E0,3.6667519E0,1.0520952E1,1.0378214E1,3.3673167E0,2.280033E0,4.3118005E0,1.3609252E0,1.391328E0,0E0,1.5669785E0,5.555756E0,0E0,0E0,0E0,3.1775932E0,4.6922307E0,1.4512043E0,7.7299004E0,0E0,2.967184E0,4.8020744E-1,5.515594E0,0E0,0E0,3.0303383E-1,0E0,0E0,8.090672E0,9.632259E0,1.3170355E1,9.239158E0,0E0,1.1563759E0,0E0,6.277185E0,6.43596E0,8.353435E0,2.4489908E0,7.9306517E0,1.1668632E0,5.37442E0,6.084936E0,0E0,0E0,0E0,0E0,0E0,0E0,0E0,0E0,0E0,0E0,0E0,0E0,0E0,0E0,0E0,0E0,0E0,0E0,0E0,0E0,0E0,0E0,0E0,0E0,0E0,0E0,0E0,0E0,0E0,0E0,0E0,0E0,0E0,0E0,0E0,0E0,0E0,0E0,0E0,0E0,0E0,0E0,0E0,0E0,0E0,0E0,0E0,0E0,0E0,0E0,0E0,0E0,0E0,0E0,0E0,0E0,0E0],"parents":[2147483647,0,0,1,1,2,2,3,3,4,4,5,5,6,6,8,8,9,9,10,10,11,11,12,12,13,13,14,14,15,15,17,17,18,18,19,19,21,21,22,22,23,23,24,24,25,25,26,26,27,27,28,28,29,29,30,30,31,31,32,32,34,34,37,37,39,39,40,40,41,41,42,42,43,43,44,44,45,45,46,46,47,47,48,48,49,49,50,50,51,51,52,52,53,53,54,54,55,55,56,56,57,57,59,59,60,60,64,64,65,65,66,66,67,67,69,69,70,70,71,71,74,74,77,77,78,78,79,79,80,80,82,82,84,84,85,85,86,86,87,87,88,88,89,89,90,90,91,91],"right_children":[2,4,6,8,10,12,14,-1,16,18,20,22,24,26,28,30,-1,32,34,36,-1,38,40,42,44,46,48,50,52,54,56,58,60,-1,62,-1,-1,64,-1,66,68,70,72,74,76,78,80,82,84,86,88,90,92,94,96,98,100,102,-1,104,106,-1,-1,-1,108,110,112,114,-1,116,118,120,-1,-1,122,-1,-1,124,126,128,130,-1,132,-1,134,136,138,140,142,144,146,148,-1,-1,-1,-1,-1,-1,-1,-1,-1,-1,-1,-1,-1,-1,-1,-1,-1,-1,-1,-1,-1,-1,-1,-1,-1,-1,-1,-1,-1,-1,-1,-1,-1,-1,-1,-1,-1,-1,-1,-1,-1,-1,-1,-1,-1,-1,-1,-1,-1,-1,-1,-1,-1,-1,-1,-1,-1],"split_conditions":[6E1,7.4E1,3.3E1,2.6E1,8.3E1,1E0,7.8E1,2.20192E-1,9.2E1,1.9E1,8.9E1,2.5E1,2.6E1,8.6E1,8.5E1,6.8E1,2.2748911E-1,4.3E1,4.7E1,9E0,-1.342546E-1,7.8E1,4.6E1,3.6E1,1E0,6.6E1,8.2E1,8.4E1,7.5E1,6.5E1,7E1,1.4E1,6.7E1,1.7883004E-1,5.4E1,2.6817036E-1,-4.8069097E-2,7.1E1,-1.2820771E-1,6.4E1,6.1E1,6.6E1,3.9E1,6.8E1,3.6E1,6.7E1,4.4E1,6.6E1,5E0,6.9E1,1E0,8.6E1,9E1,3.9E1,6E1,5.7E1,6.4E1,7.9E1,1.4480029E-1,8.4E1,6.6E1,1.591965E-2,-1.4669271E-1,2.6052666E-3,5.1E1,3.2E1,3.3E1,3.6E1,-1.7226605E-1,6.9E1,2.6E1,4.4E1,-1.7694888E-1,-5.9384596E-2,4.6E1,-1.4381856E-1,4.1874807E-2,7.2E1,7.8E1,7.6E1,8.7E1,2.0660613E-1,8.8E1,2.8029293E-1,7.9E1,6.9E1,6.6E1,7.2E1,7.1E1,7.7E1,4E0,9.2E1,3.0353358E-1,-1.4170226E-1,-2.631462E-3,-1.554383E-1,-5.837469E-2,1.086749E-1,-1.6794491E-1,7.061069E-2,2.8880045E-1,-1.6273265E-1,2.7899196E-2,-1.829804E-1,2.9057039E-2,8.371758E-2,-1.6354878E-1,4.4603243E-1,3.6463734E-2,2.3156475E-1,-1.6070913E-1,-2.1533358E-1,1.797397E-2,-2.659438E-4,3.129402E-1,-1.17300086E-1,1.2967765E-1,-4.1000262E-2,-2.1177475E-1,-1.3076681E-1,2.8585157E-1,-6.050805E-2,-2.1630123E-1,5.7256473E-3,1.4125128E-1,-5.6317598E-2,5.052516E-2,-4.5878664E-3,2.3835967E-1,1.3808531E-2,-1.6815327E-1,-1.8171865E-1,5.6153866E-3,8.178252E-2,-1.7751935E-1,-1.3837272E-2,-1.0113492E-1,-1.0610987E-1,3.5233237E-2,6.580102E-3,-2.0892265E-1,3.0954966E-1,-8.738299E-2,1.25693455E-2,-1.6069515E-1,3.151531E-1,-6.331428E-2,-1.0237745E-1,2.626954E-1],"split_indices":[11,2,12,7,9,13,11,0,7,13,9,12,12,2,10,12,0,11,3,13,0,2,6,5,26,11,7,4,7,8,5,13,10,0,9,0,0,11,0,9,7,11,5,2,4,6,9,11,13,3,28,10,7,6,7,11,8,2,0,2,3,0,0,0,6,8,4,5,0,9,8,6,0,0,7,0,0,10,8,2,4,0,4,0,4,12,6,3,8,4,13,3,0,0,0,0,0,0,0,0,0,0,0,0,0,0,0,0,0,0,0,0,0,0,0,0,0,0,0,0,0,0,0,0,0,0,0,0,0,0,0,0,0,0,0,0,0,0,0,0,0,0,0,0,0,0,0,0,0],"split_type":[0,0,0,0,0,0,0,0,0,0,0,0,0,0,0,0,0,0,0,0,0,0,0,0,0,0,0,0,0,0,0,0,0,0,0,0,0,0,0,0,0,0,0,0,0,0,0,0,0,0,0,0,0,0,0,0,0,0,0,0,0,0,0,0,0,0,0,0,0,0,0,0,0,0,0,0,0,0,0,0,0,0,0,0,0,0,0,0,0,0,0,0,0,0,0,0,0,0,0,0,0,0,0,0,0,0,0,0,0,0,0,0,0,0,0,0,0,0,0,0,0,0,0,0,0,0,0,0,0,0,0,0,0,0,0,0,0,0,0,0,0,0,0,0,0,0,0,0,0],"sum_hessian":[2.6953484E3,2.2537334E2,2.469975E3,1.4854471E2,7.682862E1,8.146408E1,2.388511E3,2.4647572E0,1.4607996E2,7.148532E1,5.3432965E0,3.396253E1,4.750155E1,2.0442535E3,3.442574E2,1.4394795E2,2.1319995E0,6.638873E1,5.0965867E0,3.9441986E0,1.3990977E0,7.027209E0,2.693532E1,2.8232943E1,1.9268608E1,2.0043015E3,3.9951965E1,3.02229E2,4.2028374E1,1.3145215E2,1.2495807E1,6.7203035E0,5.9668434E1,1.8917936E0,3.204793E0,2.7685697E0,1.1756289E0,5.9980025E0,1.0292064E0,1.054846E1,1.638686E1,1.9996645E1,8.236297E0,1.6398657E1,2.8699515E0,5.2057104E2,1.4837306E3,2.468854E1,1.5263427E1,2.552784E2,4.6950615E1,1.5610206E1,2.6418167E1,7.891267E1,5.253948E1,7.185472E0,5.310335E0,4.7406015E0,1.9797018E0,4.6758255E1,1.2910177E1,1.4780426E0,1.7267504E0,2.2343993E0,3.7636032E0,3.0010946E0,7.5473657E0,1.321079E1,3.1760705E0,7.691808E0,1.2304837E1,5.4337907E0,2.8025062E0,1.4507793E0,1.4947878E1,1.5940862E0,1.2758652E0,2.3845087E2,2.8212015E2,3.526262E1,1.4484679E3,1.7183983E0,2.297014E1,1.6529142E0,1.3610513E1,1.3499617E2,1.2028222E2,1.695142E1,2.9999197E1,4.9534793E0,1.0656726E1,2.4173885E1,2.2442827E0,6.712593E0,7.220007E1,1.3053146E1,3.9486332E1,3.1969464E0,3.9885256E0,3.288123E0,2.0222123E0,2.4221814E0,2.3184204E0,4.55834E1,1.1748538E0,5.6529503E0,7.2572265E0,2.5583453E0,1.2052579E0,1.1108891E0,1.8902054E0,6.4743395E0,1.0730265E0,9.493605E0,3.7171848E0,5.906206E0,1.7856017E0,1.277301E0,1.1027536E1,1.017263E0,4.4165277E0,1.5052419E0,1.3442636E1,2.2028908E2,1.8161785E1,2.437656E2,3.835456E1,1.5713629E1,1.9548992E1,1.4382142E3,1.02537E1,2.1633215E1,1.3369272E0,8.39018E0,5.220333E0,7.033056E1,6.466561E1,1.9005789E1,1.01276436E2,2.370255E0,1.4581164E1,1.186636E0,2.8812561E1,2.977419E0,1.9760604E0,9.249918E0,1.4068083E0,2.3147984E1,1.0259023E0],"tree_param":{"num_deleted":"0","num_feature":"31","num_nodes":"149","size_leaf_vector":"1"}},{"base_weights":[-4.4072703E-2,-3.264631E-2,-4.651344E-1,7.557478E-2,-7.276729E-2,-7.7311146E-1,-1.6689707E-1,2.7372766E-1,-1.6381438E-1,-4.084212E-1,-5.279983E-2,-5.0213766E-1,-2.0045836E-1,2.1941969E-1,-7.1615845E-1,2.2002853E-1,6.724653E-1,-2.7860326E-1,1.8113516E-1,-4.8590738E-1,5.608157E-1,-4.194941E-2,-7.039569E-1,-6.118298E-1,9.09705E-2,1.2397776E0,-1.3993311E-2,-2.103297E-1,1.3184921E-1,4.3755147E-1,3.8368862E-2,1.0275387E0,-2.1135386E-2,5.227403E-2,-4.1755697E-1,1.3370875E0,1.8857036E-2,-3.0003542E-1,-8.919909E-1,1.3532892E0,-6.2434566E-1,5.936183E-1,